{"learner":{"attributes":{"scikit_learn":"{\"_estimator_type\": \"regressor\"}"},"feature_names":["lag_1","lag_2","lag_3","lag_4","lag_5","lag_6","lag_7","roll_mean_3","roll_std_3","roll_min_3","roll_max_3","roll_median_3","roll_cumsum_3","roll_mean_5","roll_std_5","roll_min_5","roll_max_5","roll_median_5","roll_cumsum_5","roll_mean_7","roll_std_7","roll_min_7","roll_max_7","roll_median_7","roll_cumsum_7","ewm_mean_3","ewm_std_3","ewm_mean_5","ewm_std_5","ewm_mean_7","ewm_std_7"],"feature_types":["float","float","float","float","float","float","float","float","float","float","float","float","float","float","float","float","float","float","float","float","float","float","float","float","float","float","float","float","float","float","float"],"gradient_booster":{"model":{"cats":{"enc":[],"feature_segments":[],"sorted_idx":[]},"gbtree_model_param":{"num_parallel_tree":"1","num_trees":"500"},"iteration_indptr":[0,1,2,3,4,5,6,7,8,9,10,11,12,13,14,15,16,17,18,19,20,21,22,23,24,25,26,27,28,29,30,31,32,33,34,35,36,37,38,39,40,41,42,43,44,45,46,47,48,49,50,51,52,53,54,55,56,57,58,59,60,61,62,63,64,65,66,67,68,69,70,71,72,73,74,75,76,77,78,79,80,81,82,83,84,85,86,87,88,89,90,91,92,93,94,95,96,97,98,99,100,101,102,103,104,105,106,107,108,109,110,111,112,113,114,115,116,117,118,119,120,121,122,123,124,125,126,127,128,129,130,131,132,133,134,135,136,137,138,139,140,141,142,143,144,145,146,147,148,149,150,151,152,153,154,155,156,157,158,159,160,161,162,163,164,165,166,167,168,169,170,171,172,173,174,175,176,177,178,179,180,181,182,183,184,185,186,187,188,189,190,191,192,193,194,195,196,197,198,199,200,201,202,203,204,205,206,207,208,209,210,211,212,213,214,215,216,217,218,219,220,221,222,223,224,225,226,227,228,229,230,231,232,233,234,235,236,237,238,239,240,241,242,243,244,245,246,247,248,249,250,251,252,253,254,255,256,257,258,259,260,261,262,263,264,265,266,267,268,269,270,271,272,273,274,275,276,277,278,279,280,281,282,283,284,285,286,287,288,289,290,291,292,293,294,295,296,297,298,299,300,301,302,303,304,305,306,307,308,309,310,311,312,313,314,315,316,317,318,319,320,321,322,323,324,325,326,327,328,329,330,331,332,333,334,335,336,337,338,339,340,341,342,343,344,345,346,347,348,349,350,351,352,353,354,355,356,357,358,359,360,361,362,363,364,365,366,367,368,369,370,371,372,373,374,375,376,377,378,379,380,381,382,383,384,385,386,387,388,389,390,391,392,393,394,395,396,397,398,399,400,401,402,403,404,405,406,407,408,409,410,411,412,413,414,415,416,417,418,419,420,421,422,423,424,425,426,427,428,429,430,431,432,433,434,435,436,437,438,439,440,441,442,443,444,445,446,447,448,449,450,451,452,453,454,455,456,457,458,459,460,461,462,463,464,465,466,467,468,469,470,471,472,473,474,475,476,477,478,479,480,481,482,483,484,485,486,487,488,489,490,491,492,493,494,495,496,497,498,499,500],"tree_info":[0,0,0,0,0,0,0,0,0,0,0,0,0,0,0,0,0,0,0,0,0,0,0,0,0,0,0,0,0,0,0,0,0,0,0,0,0,0,0,0,0,0,0,0,0,0,0,0,0,0,0,0,0,0,0,0,0,0,0,0,0,0,0,0,0,0,0,0,0,0,0,0,0,0,0,0,0,0,0,0,0,0,0,0,0,0,0,0,0,0,0,0,0,0,0,0,0,0,0,0,0,0,0,0,0,0,0,0,0,0,0,0,0,0,0,0,0,0,0,0,0,0,0,0,0,0,0,0,0,0,0,0,0,0,0,0,0,0,0,0,0,0,0,0,0,0,0,0,0,0,0,0,0,0,0,0,0,0,0,0,0,0,0,0,0,0,0,0,0,0,0,0,0,0,0,0,0,0,0,0,0,0,0,0,0,0,0,0,0,0,0,0,0,0,0,0,0,0,0,0,0,0,0,0,0,0,0,0,0,0,0,0,0,0,0,0,0,0,0,0,0,0,0,0,0,0,0,0,0,0,0,0,0,0,0,0,0,0,0,0,0,0,0,0,0,0,0,0,0,0,0,0,0,0,0,0,0,0,0,0,0,0,0,0,0,0,0,0,0,0,0,0,0,0,0,0,0,0,0,0,0,0,0,0,0,0,0,0,0,0,0,0,0,0,0,0,0,0,0,0,0,0,0,0,0,0,0,0,0,0,0,0,0,0,0,0,0,0,0,0,0,0,0,0,0,0,0,0,0,0,0,0,0,0,0,0,0,0,0,0,0,0,0,0,0,0,0,0,0,0,0,0,0,0,0,0,0,0,0,0,0,0,0,0,0,0,0,0,0,0,0,0,0,0,0,0,0,0,0,0,0,0,0,0,0,0,0,0,0,0,0,0,0,0,0,0,0,0,0,0,0,0,0,0,0,0,0,0,0,0,0,0,0,0,0,0,0,0,0,0,0,0,0,0,0,0,0,0,0,0,0,0,0,0,0,0,0,0,0,0,0,0,0,0,0,0,0,0,0,0,0,0,0,0,0,0,0,0,0,0,0,0,0,0,0,0,0,0,0,0,0,0,0,0,0,0,0,0,0,0,0,0,0,0,0,0,0,0,0,0,0,0,0,0,0,0,0,0,0,0],"trees":[{"base_weights":[8.619164E-2,-2.5468884E0,5.5855327E0,-3.3192573E0,1.3508925E-1,3.6835232E0,6.791527E0,-1.3983294E-1,-2.8355532E0,2.164973E0,-1.518316E0,4.664331E0,1.0768203E0,5.3638277E0,7.4766335E0,-2.4615998E0,-4.006425E0,3.056899E0,6.305405E-1,-6.6877015E-2,-2.943101E0,3.1223829E0,1.7747648E-1,1.8454175E0,-1.1596575E-1,2.0775585E0,1.6945818E-1,2.4518923E-1,5.609138E0,-8.646647E-2,-5.2620642E-2,1.3049373E-2,-1.21641584E-1,4.244201E-2,1.177723E-1,-1.27893165E-2,5.641073E-2,-1.6438683E-2,2.7836993E-2,-2.1048468E-2,-9.562717E-2,9.870955E-2,2.5672808E-2,2.1222182E-2,7.3014446E-2,-2.5119381E-2,2.1953667E-2,6.507867E-2,3.0493736E-3,7.823184E-2,1.9336805E-1],"categories":[],"categories_nodes":[],"categories_segments":[],"categories_sizes":[],"default_left":[0,0,0,0,0,0,0,0,0,0,0,0,0,0,0,0,0,0,0,0,0,0,0,0,0,0,0,0,0,0,0,0,0,0,0,0,0,0,0,0,0,0,0,0,0,0,0,0,0,0,0],"id":0,"left_children":[1,3,5,7,9,11,13,-1,15,17,19,21,23,25,27,29,31,33,35,37,39,41,-1,43,45,47,-1,-1,49,-1,-1,-1,-1,-1,-1,-1,-1,-1,-1,-1,-1,-1,-1,-1,-1,-1,-1,-1,-1,-1,-1],"loss_changes":[2.2138959E4,2.144148E3,1.0103535E3,4.5510742E2,8.0850366E2,4.9389185E2,8.998633E1,0E0,2.1471338E2,1.3817136E2,2.7405835E2,1.8939673E2,5.7909897E1,4.801172E1,1.5260742E1,1.1460327E2,3.8418945E1,6.782526E1,6.476813E1,3.6520454E1,2.5532349E1,1.4850464E1,0E0,1.6836456E1,2.079791E1,1.9787674E0,0E0,0E0,8.4166504E1,0E0,0E0,0E0,0E0,0E0,0E0,0E0,0E0,0E0,0E0,0E0,0E0,0E0,0E0,0E0,0E0,0E0,0E0,0E0,0E0,0E0,0E0],"parents":[2147483647,0,0,1,1,2,2,3,3,4,4,5,5,6,6,8,8,9,9,10,10,11,11,12,12,13,13,14,14,15,15,16,16,17,17,18,18,19,19,20,20,21,21,23,23,24,24,25,25,28,28],"right_children":[2,4,6,8,10,12,14,-1,16,18,20,22,24,26,28,30,32,34,36,38,40,42,-1,44,46,48,-1,-1,50,-1,-1,-1,-1,-1,-1,-1,-1,-1,-1,-1,-1,-1,-1,-1,-1,-1,-1,-1,-1,-1,-1],"split_conditions":[7.346953E0,5.300603E0,9.127746E0,1.8177134E0,7E0,1.2E1,4.329631E0,-1.3983294E-1,4.094004E0,9E0,4.467567E0,4.2979994E0,8E0,9.434355E0,1.3E1,2.8245115E0,2.1527777E0,9E0,7E0,6.932123E0,5E-1,9.428572E0,1.7747648E-1,8E0,6E0,1.5E1,1.6945818E-1,2.4518923E-1,1.0078159E1,-8.646647E-2,-5.2620642E-2,1.3049373E-2,-1.21641584E-1,4.244201E-2,1.177723E-1,-1.27893165E-2,5.641073E-2,-1.6438683E-2,2.7836993E-2,-2.1048468E-2,-9.562717E-2,9.870955E-2,2.5672808E-2,2.1222182E-2,7.3014446E-2,-2.5119381E-2,2.1953667E-2,6.507867E-2,3.0493736E-3,7.823184E-2,1.9336805E-1],"split_indices":[25,25,25,25,0,0,30,0,26,1,26,26,1,25,0,25,19,10,11,25,2,19,0,11,9,5,0,0,25,0,0,0,0,0,0,0,0,0,0,0,0,0,0,0,0,0,0,0,0,0,0],"split_type":[0,0,0,0,0,0,0,0,0,0,0,0,0,0,0,0,0,0,0,0,0,0,0,0,0,0,0,0,0,0,0,0,0,0,0,0,0,0,0,0,0,0,0,0,0,0,0,0,0,0,0],"sum_hessian":[1.519E3,1.029E3,4.9E2,7.98E2,2.31E2,1.98E2,2.92E2,2E2,5.98E2,1.03E2,1.28E2,1.41E2,5.7E1,1.09E2,1.83E2,4.65E2,1.33E2,6.2E1,4.1E1,6.6E1,6.2E1,7.1E1,7E1,3.3E1,2.4E1,1.2E1,9.7E1,1.21E2,6.2E1,2.82E2,1.83E2,1E0,1.32E2,2.6E1,3.6E1,2.4E1,1.7E1,4.6E1,2E1,8E0,5.4E1,6.4E1,7E0,1.5E1,1.8E1,1.3E1,1.1E1,1.1E1,1E0,1.8E1,4.4E1],"tree_param":{"num_deleted":"0","num_feature":"31","num_nodes":"51","size_leaf_vector":"1"}},{"base_weights":[-6.059903E-2,-2.604635E0,5.2448206E0,-3.137204E0,-3.2136908E-1,3.786858E0,2.0410244E-1,-1.3500856E-1,-2.647568E0,1.9298146E0,-1.8090944E0,5.573832E0,2.263278E0,-2.3441036E0,-3.8649988E0,2.378383E0,2.6209953E-1,-6.0417765E-1,-2.9842412E0,1.0624614E-1,6.415067E0,2.5940676E0,-1.3590779E0,-7.923343E-2,-4.2439632E-2,1.2984126E-2,-1.17621124E-1,7.7943556E-2,1.0309386E-2,-5.25269E-3,1.8170454E-2,1.3614041E-2,-3.409483E-2,-1.1095697E-2,-9.1245614E-2,1.9434614E-1,7.7673197E-3,9.60201E-2,4.063774E-2,3.1546163E-3,-4.4752337E-2],"categories":[],"categories_nodes":[],"categories_segments":[],"categories_sizes":[],"default_left":[0,0,0,0,0,0,0,0,0,0,0,0,0,0,0,0,0,0,0,0,0,0,0,0,0,0,0,0,0,0,0,0,0,0,0,0,0,0,0,0,0],"id":1,"left_children":[1,3,5,7,9,11,-1,-1,13,15,17,19,21,23,25,27,29,31,33,-1,35,37,39,-1,-1,-1,-1,-1,-1,-1,-1,-1,-1,-1,-1,-1,-1,-1,-1,-1,-1],"loss_changes":[2.0530027E4,1.2450029E3,9.914619E2,4.9638184E2,6.8728467E2,6.611355E2,0E0,0E0,1.8560498E2,5.8226044E1,1.6514728E2,8.985083E1,1.997597E2,1.2293579E2,3.6495605E1,2.4150513E1,3.9850836E0,4.031176E1,3.5101929E0,0E0,2.1930908E1,8.433563E1,3.892395E0,0E0,0E0,0E0,0E0,0E0,0E0,0E0,0E0,0E0,0E0,0E0,0E0,0E0,0E0,0E0,0E0,0E0,0E0],"parents":[2147483647,0,0,1,1,2,2,3,3,4,4,5,5,8,8,9,9,10,10,11,11,12,12,13,13,14,14,15,15,16,16,17,17,18,18,20,20,21,21,22,22],"right_children":[2,4,6,8,10,12,-1,-1,14,16,18,20,22,24,26,28,30,32,34,-1,36,38,40,-1,-1,-1,-1,-1,-1,-1,-1,-1,-1,-1,-1,-1,-1,-1,-1,-1,-1],"split_conditions":[7.068018E0,5.300603E0,9.434355E0,1.8177134E0,5.5E0,7E0,2.0410244E-1,-1.3500856E-1,4.3216414E0,7.6E0,4.90158E0,4.4785237E0,5.493261E0,3.214102E0,5E-1,2.0138888E0,5.5E0,2.9229174E0,4.7E0,1.0624614E-1,1.3E1,9E0,2.0138888E0,-7.923343E-2,-4.2439632E-2,1.2984126E-2,-1.17621124E-1,7.7943556E-2,1.0309386E-2,-5.25269E-3,1.8170454E-2,1.3614041E-2,-3.409483E-2,-1.1095697E-2,-9.1245614E-2,1.9434614E-1,7.7673197E-3,9.60201E-2,4.063774E-2,3.1546163E-3,-4.4752337E-2],"split_indices":[25,25,25,25,0,0,0,0,26,13,26,26,26,25,11,21,11,26,13,0,23,1,1,0,0,0,0,0,0,0,0,0,0,0,0,0,0,0,0,0,0],"split_type":[0,0,0,0,0,0,0,0,0,0,0,0,0,0,0,0,0,0,0,0,0,0,0,0,0,0,0,0,0,0,0,0,0,0,0,0,0,0,0,0,0],"sum_hessian":[1.511E3,1.023E3,4.88E2,8.28E2,1.95E2,2.61E2,2.27E2,2.08E2,6.2E2,7.7E1,1.18E2,1.14E2,1.47E2,5.08E2,1.12E2,5.9E1,1.8E1,6.2E1,5.6E1,4.1E1,7.3E1,1.36E2,1.1E1,3.78E2,1.3E2,1E0,1.11E2,5.2E1,7E0,9E0,9E0,2.1E1,4.1E1,2E0,5.4E1,7.2E1,1E0,8.6E1,5E1,1E0,1E1],"tree_param":{"num_deleted":"0","num_feature":"31","num_nodes":"41","size_leaf_vector":"1"}},{"base_weights":[-1.04366206E-1,-2.4935734E0,5.151985E0,-3.0855994E0,-2.0829898E-1,2.73669E0,6.1310344E0,-1.3066189E-1,-2.615457E0,2.0313656E0,-1.5674951E0,4.3429756E0,1.2203827E0,5.357423E0,2.3141629E-1,-2.3468406E0,-3.8716953E0,2.496694E0,-3.425128E-1,-4.2999E-1,-2.9725025E0,2.7232633E0,1.5287621E-1,2.2672477E0,-1.0988816E-1,3.940581E0,1.9683206E-1,-8.033235E-2,-4.778912E-2,1.2919203E-2,-1.1814741E-1,3.8067807E-2,9.113385E-2,-2.2420863E-2,1.4326128E-2,1.2336595E-2,-2.895405E-2,-1.0957691E-2,-9.3783654E-2,7.0245955E-3,8.297371E-2,7.316924E-2,6.7606065E-3,1.8591432E-2,-2.7526675E-2,1.4102122E-1,7.2189994E-2],"categories":[],"categories_nodes":[],"categories_segments":[],"categories_sizes":[],"default_left":[0,0,0,0,0,0,0,0,0,0,0,0,0,0,0,0,0,0,0,0,0,0,0,0,0,0,0,0,0,0,0,0,0,0,0,0,0,0,0,0,0,0,0,0,0,0,0],"id":2,"left_children":[1,3,5,7,9,11,13,-1,15,17,19,21,23,25,-1,27,29,31,33,35,37,39,-1,41,43,45,-1,-1,-1,-1,-1,-1,-1,-1,-1,-1,-1,-1,-1,-1,-1,-1,-1,-1,-1,-1,-1],"loss_changes":[1.8525248E4,1.3686694E3,1.0062285E3,4.236167E2,6.6736743E2,3.1935803E2,1.901084E2,0E0,1.5703662E2,9.5960266E1,2.1096487E2,1.2317993E1,1.12654816E2,2.6978564E2,0E0,1.0514795E2,3.654004E1,2.723053E1,7.7604103E0,3.844812E1,1.8322205E1,1.4926147E-1,0E0,1.3031036E1,2.6414171E1,8.3389404E1,0E0,0E0,0E0,0E0,0E0,0E0,0E0,0E0,0E0,0E0,0E0,0E0,0E0,0E0,0E0,0E0,0E0,0E0,0E0,0E0,0E0],"parents":[2147483647,0,0,1,1,2,2,3,3,4,4,5,5,6,6,8,8,9,9,10,10,11,11,12,12,13,13,15,15,16,16,17,17,18,18,19,19,20,20,21,21,23,23,24,24,25,25],"right_children":[2,4,6,8,10,12,14,-1,16,18,20,22,24,26,-1,28,30,32,34,36,38,40,-1,42,44,46,-1,-1,-1,-1,-1,-1,-1,-1,-1,-1,-1,-1,-1,-1,-1,-1,-1,-1,-1,-1,-1],"split_conditions":[7.190197E0,5.300603E0,8.523372E0,1.8177134E0,6E0,7E0,5.2520227E0,-1.3066189E-1,4.609424E0,1.2E1,5.1316013E0,4.2822657E0,1.3E1,1.0078159E1,2.3141629E-1,3.0043018E0,3.34664E0,3.4641016E0,5.5E0,5.5E0,5E0,2.0138888E0,1.5287621E-1,1.2E1,8E0,1.2E1,1.9683206E-1,-8.033235E-2,-4.778912E-2,1.2919203E-2,-1.1814741E-1,3.8067807E-2,9.113385E-2,-2.2420863E-2,1.4326128E-2,1.2336595E-2,-2.895405E-2,-1.0957691E-2,-9.3783654E-2,7.0245955E-3,8.297371E-2,7.316924E-2,6.7606065E-3,1.8591432E-2,-2.7526675E-2,1.4102122E-1,7.2189994E-2],"split_indices":[25,25,25,25,0,0,26,0,26,1,8,26,10,25,0,25,14,8,11,1,13,3,0,1,13,0,0,0,0,0,0,0,0,0,0,0,0,0,0,0,0,0,0,0,0,0,0],"split_type":[0,0,0,0,0,0,0,0,0,0,0,0,0,0,0,0,0,0,0,0,0,0,0,0,0,0,0,0,0,0,0,0,0,0,0,0,0,0,0,0,0,0,0,0,0,0,0],"sum_hessian":[1.465E3,1.009E3,4.56E2,8E2,2.09E2,1.37E2,3.19E2,2.05E2,5.95E2,7.8E1,1.31E2,6.2E1,7.5E1,2.29E2,9E1,5.02E2,9.3E1,6.5E1,1.3E1,7.6E1,5.5E1,2.7E1,3.5E1,4E1,3.5E1,1.15E2,1.14E2,3.4E2,1.62E2,1E0,9.2E1,2.5E1,4E1,9E0,4E0,3E1,4.6E1,4E0,5.1E1,1E0,2.6E1,3.6E1,4E0,1.9E1,1.6E1,7E1,4.5E1],"tree_param":{"num_deleted":"0","num_feature":"31","num_nodes":"47","size_leaf_vector":"1"}},{"base_weights":[1.7158156E-3,-2.342611E0,5.023895E0,-3.014471E0,-3.82865E-2,3.7163517E0,1.9706991E-1,-1.2356415E-1,-2.501734E0,1.1176705E0,-1.8665577E0,4.9247217E0,1.64699E0,-2.1370218E0,-3.5977685E0,2.149151E0,-5.520138E-2,5.240893E-1,-2.3416214E0,3.2630131E0,6.087602E0,1.9918293E0,-5.287749E-1,-3.4958996E-2,-7.173788E-2,1.2854607E-2,-1.0931411E-1,7.986711E-2,2.9984245E-2,-2.714829E-2,2.4680518E-2,3.6760204E-2,-1.361909E-2,-1.9956041E-2,-8.4051535E-2,1.0175255E-1,1.9206561E-2,1.844588E-1,2.7595066E-2,7.721814E-2,3.5125E-2,1.973391E-2,-2.5855238E-2],"categories":[],"categories_nodes":[],"categories_segments":[],"categories_sizes":[],"default_left":[0,0,0,0,0,0,0,0,0,0,0,0,0,0,0,0,0,0,0,0,0,0,0,0,0,0,0,0,0,0,0,0,0,0,0,0,0,0,0,0,0,0,0],"id":3,"left_children":[1,3,5,7,9,11,-1,-1,13,15,17,19,21,23,25,27,29,31,33,35,37,39,41,-1,-1,-1,-1,-1,-1,-1,-1,-1,-1,-1,-1,-1,-1,-1,-1,-1,-1,-1,-1],"loss_changes":[1.8202008E4,1.6312085E3,8.71917E2,4.105254E2,5.239879E2,6.545996E2,0E0,0E0,1.8940771E2,1.8448195E2,1.15164215E2,2.3497998E2,8.7798004E1,9.477002E1,3.2828613E1,3.447632E1,6.041656E1,1.6498629E1,5.315796E1,1.6830322E1,1.9960938E0,3.0810974E1,1.0343521E1,0E0,0E0,0E0,0E0,0E0,0E0,0E0,0E0,0E0,0E0,0E0,0E0,0E0,0E0,0E0,0E0,0E0,0E0,0E0,0E0],"parents":[2147483647,0,0,1,1,2,2,3,3,4,4,5,5,8,8,9,9,10,10,11,11,12,12,13,13,14,14,15,15,16,16,17,17,18,18,19,19,20,20,21,21,22,22],"right_children":[2,4,6,8,10,12,-1,-1,14,16,18,20,22,24,26,28,30,32,34,36,38,40,42,-1,-1,-1,-1,-1,-1,-1,-1,-1,-1,-1,-1,-1,-1,-1,-1,-1,-1,-1,-1],"split_conditions":[7.346953E0,5.300603E0,9.652485E0,1.9783423E0,1.2E1,1E1,1.9706991E-1,-1.2356415E-1,4.094004E0,7E0,5E0,4.2979994E0,5.493261E0,2E0,2.1527777E0,9E0,6.4565606E0,8.6E0,4.467567E0,1.5E1,5E0,7E0,5E-1,-3.4958996E-2,-7.173788E-2,1.2854607E-2,-1.0931411E-1,7.986711E-2,2.9984245E-2,-2.714829E-2,2.4680518E-2,3.6760204E-2,-1.361909E-2,-1.9956041E-2,-8.4051535E-2,1.0175255E-1,1.9206561E-2,1.844588E-1,2.7595066E-2,7.721814E-2,3.5125E-2,1.973391E-2,-2.5855238E-2],"split_indices":[25,25,25,25,10,0,0,0,26,0,0,26,26,0,19,1,25,13,26,1,9,1,1,0,0,0,0,0,0,0,0,0,0,0,0,0,0,0,0,0,0,0,0],"split_type":[0,0,0,0,0,0,0,0,0,0,0,0,0,0,0,0,0,0,0,0,0,0,0,0,0,0,0,0,0,0,0,0,0,0,0,0,0,0,0,0,0,0,0],"sum_hessian":[1.536E3,1.049E3,4.87E2,8.11E2,2.38E2,2.73E2,2.14E2,2.46E2,5.65E2,1.47E2,9.1E1,1.68E2,1.05E2,4.35E2,1.3E2,7.6E1,7.1E1,1.5E1,7.6E1,7.7E1,9.1E1,9.1E1,1.4E1,9.6E1,3.39E2,1E0,1.29E2,4.8E1,2.8E1,3.6E1,3.5E1,8E0,7E0,1.9E1,5.7E1,7.2E1,5E0,8.9E1,2E0,4.7E1,4.4E1,2E0,1.2E1],"tree_param":{"num_deleted":"0","num_feature":"31","num_nodes":"43","size_leaf_vector":"1"}},{"base_weights":[9.532662E-3,-2.3188384E0,4.927525E0,-2.9450645E0,1.0222604E-3,3.7237842E0,1.9331554E-1,-1.2560758E-1,-2.5287392E0,1.916842E0,-1.3231848E0,4.901931E0,2.0196795E0,-2.2177637E0,-3.6447093E0,2.7235184E0,7.790582E-1,-3.2999036E-1,-2.7125707E0,3.2473307E0,1.802497E-1,2.4740973E0,8.883241E-2,-7.686303E-2,-3.961891E-2,-5.1154226E-2,-1.1424345E-1,2.2486778E-2,9.126316E-2,-4.3006307E-3,4.9634054E-2,2.2781923E-2,-2.795226E-2,-3.1041016E-3,-8.709965E-2,1.02433406E-1,1.2612871E-2,1.5731715E-2,8.1969805E-2,-3.1521704E-2,2.59294E-2],"categories":[],"categories_nodes":[],"categories_segments":[],"categories_sizes":[],"default_left":[0,0,0,0,0,0,0,0,0,0,0,0,0,0,0,0,0,0,0,0,0,0,0,0,0,0,0,0,0,0,0,0,0,0,0,0,0,0,0,0,0],"id":4,"left_children":[1,3,5,7,9,11,-1,-1,13,15,17,19,21,23,25,27,29,31,33,35,-1,37,39,-1,-1,-1,-1,-1,-1,-1,-1,-1,-1,-1,-1,-1,-1,-1,-1,-1,-1],"loss_changes":[1.7462516E4,1.5036191E3,7.7440234E2,3.684297E2,5.8349365E2,5.2268823E2,0E0,0E0,1.757898E2,7.566644E1,1.8319493E2,2.045E2,1.0857742E2,1.3754004E2,8.101074E0,2.1929382E1,3.8330395E1,5.925879E1,2.63685E1,2.919873E1,0E0,4.3686646E1,3.0168184E1,0E0,0E0,0E0,0E0,0E0,0E0,0E0,0E0,0E0,0E0,0E0,0E0,0E0,0E0,0E0,0E0,0E0,0E0],"parents":[2147483647,0,0,1,1,2,2,3,3,4,4,5,5,8,8,9,9,10,10,11,11,12,12,13,13,14,14,15,15,16,16,17,17,18,18,19,19,21,21,22,22],"right_children":[2,4,6,8,10,12,-1,-1,14,16,18,20,22,24,26,28,30,32,34,36,-1,38,40,-1,-1,-1,-1,-1,-1,-1,-1,-1,-1,-1,-1,-1,-1,-1,-1,-1,-1],"split_conditions":[7.190197E0,5.300603E0,9.652485E0,1.7027866E0,5.5E0,9E0,1.9331554E-1,-1.2560758E-1,4.131411E0,9E0,4.90158E0,4.4785237E0,1.2E1,3.0043018E0,5E-1,8E0,7E0,5.5E0,5E0,4.932883E0,1.802497E-1,8E0,5E0,-7.686303E-2,-3.961891E-2,-5.1154226E-2,-1.1424345E-1,2.2486778E-2,9.126316E-2,-4.3006307E-3,4.9634054E-2,2.2781923E-2,-2.795226E-2,-3.1041016E-3,-8.709965E-2,1.02433406E-1,1.2612871E-2,1.5731715E-2,8.1969805E-2,-3.1521704E-2,2.59294E-2],"split_indices":[25,25,25,25,0,0,0,0,26,1,26,26,1,25,0,10,11,1,13,8,0,11,9,0,0,0,0,0,0,0,0,0,0,0,0,0,0,0,0,0,0],"split_type":[0,0,0,0,0,0,0,0,0,0,0,0,0,0,0,0,0,0,0,0,0,0,0,0,0,0,0,0,0,0,0,0,0,0,0,0,0,0,0,0,0],"sum_hessian":[1.515E3,1.03E3,4.85E2,8.1E2,2.2E2,2.8E2,2.05E2,1.92E2,6.18E2,8.9E1,1.31E2,1.6E2,1.2E2,4.95E2,1.23E2,4.8E1,4.1E1,8E1,5.1E1,7.2E1,8.8E1,9.6E1,2.4E1,3.51E2,1.44E2,1.4E1,1.09E2,9E0,3.9E1,2.2E1,1.9E1,2.8E1,5.2E1,4E0,4.7E1,6.7E1,5E0,1.3E1,8.3E1,9E0,1.5E1],"tree_param":{"num_deleted":"0","num_feature":"31","num_nodes":"41","size_leaf_vector":"1"}},{"base_weights":[-1.6843785E-2,-2.3458302E0,4.5651507E0,-2.8321278E0,-4.6340898E-1,2.9456823E0,5.8693404E0,-1.1680894E-1,-2.3817806E0,1.5076231E0,-1.5872415E0,4.5341673E0,1.6055038E0,4.4352665E0,6.4652486E0,-2.0770829E0,-3.625725E0,2.124148E0,2.316714E-1,-5.9388775E-1,-2.8622224E0,2.9394624E0,5.326293E0,2.489091E0,3.420422E-1,4.4996047E0,1.1270346E-2,2.1001023E-1,4.3310423E0,-7.212676E-2,-3.7151E-2,-1.0928107E-1,-9.045789E-3,6.699802E-2,1.0135399E-2,-1.6167514E-2,3.2103222E-2,1.2121422E-2,-3.1300943E-2,-1.0159619E-2,-8.760143E-2,8.937194E-2,5.5887983E-3,1.6155691E-1,7.476778E-3,8.548586E-2,4.2042747E-2,3.308384E-2,-2.6295476E-2,1.3816544E-1,3.8262755E-2,6.2091276E-2,1.6368428E-1],"categories":[],"categories_nodes":[],"categories_segments":[],"categories_sizes":[],"default_left":[0,0,0,0,0,0,0,0,0,0,0,0,0,0,0,0,0,0,0,0,0,0,0,0,0,0,0,0,0,0,0,0,0,0,0,0,0,0,0,0,0,0,0,0,0,0,0,0,0,0,0,0,0],"id":5,"left_children":[1,3,5,7,9,11,13,-1,15,17,19,21,23,25,27,29,31,33,35,37,39,41,43,45,47,49,-1,-1,51,-1,-1,-1,-1,-1,-1,-1,-1,-1,-1,-1,-1,-1,-1,-1,-1,-1,-1,-1,-1,-1,-1,-1,-1],"loss_changes":[1.6466164E4,9.2990967E2,1.01184375E3,3.418037E2,4.9042853E2,4.7878442E2,9.846875E1,0E0,1.8331812E2,6.1258606E1,1.6881183E2,5.8144287E1,1.5091971E2,1.7405273E1,6.424414E1,1.16815674E2,6.032715E-1,6.753189E0,2.355835E1,4.0234497E1,3.8111572E0,2.3495789E0,1.3038452E1,1.1787964E1,6.323542E1,3.7531738E0,0E0,0E0,7.329242E1,0E0,0E0,0E0,0E0,0E0,0E0,0E0,0E0,0E0,0E0,0E0,0E0,0E0,0E0,0E0,0E0,0E0,0E0,0E0,0E0,0E0,0E0,0E0,0E0],"parents":[2147483647,0,0,1,1,2,2,3,3,4,4,5,5,6,6,8,8,9,9,10,10,11,11,12,12,13,13,14,14,15,15,16,16,17,17,18,18,19,19,20,20,21,21,22,22,23,23,24,24,25,25,28,28],"right_children":[2,4,6,8,10,12,14,-1,16,18,20,22,24,26,28,30,32,34,36,38,40,42,44,46,48,50,-1,-1,52,-1,-1,-1,-1,-1,-1,-1,-1,-1,-1,-1,-1,-1,-1,-1,-1,-1,-1,-1,-1,-1,-1,-1,-1],"split_conditions":[7.068018E0,5.300603E0,9.127746E0,1.9783423E0,6E0,7E0,4.0466013E0,-1.1680894E-1,4.509411E0,7.2E0,5.196152E0,4.4785237E0,1.3E1,4.0381618E0,1.4E1,3.190213E0,2E0,1.2E1,5.5E0,2.9645102E0,4.7E0,1.5E1,1.3E1,8.285714E0,1E1,1.5E1,1.1270346E-2,2.1001023E-1,1.0563873E1,-7.212676E-2,-3.7151E-2,-1.0928107E-1,-9.045789E-3,6.699802E-2,1.0135399E-2,-1.6167514E-2,3.2103222E-2,1.2121422E-2,-3.1300943E-2,-1.0159619E-2,-8.760143E-2,8.937194E-2,5.5887983E-3,1.6155691E-1,7.476778E-3,8.548586E-2,4.2042747E-2,3.308384E-2,-2.6295476E-2,1.3816544E-1,3.8262755E-2,6.2091276E-2,1.6368428E-1],"split_indices":[25,25,25,25,0,0,28,0,26,13,8,26,10,28,0,25,21,1,11,26,13,3,23,19,11,3,0,0,25,0,0,0,0,0,0,0,0,0,0,0,0,0,0,0,0,0,0,0,0,0,0,0,0],"split_type":[0,0,0,0,0,0,0,0,0,0,0,0,0,0,0,0,0,0,0,0,0,0,0,0,0,0,0,0,0,0,0,0,0,0,0,0,0,0,0,0,0,0,0,0,0,0,0,0,0,0,0,0,0],"sum_hessian":[1.533E3,1.018E3,5.15E2,8.07E2,2.11E2,2.37E2,2.78E2,2.29E2,5.78E2,7.6E1,1.35E2,1.03E2,1.34E2,9.4E1,1.84E2,4.75E2,1.03E2,4.9E1,2.7E1,8E1,5.5E1,4.2E1,6.1E1,7.6E1,5.8E1,9.2E1,2E0,1.38E2,4.6E1,3.35E2,1.4E2,1.02E2,1E0,4.5E1,4E0,1.5E1,1.2E1,2.5E1,5.5E1,2E0,5.3E1,4.1E1,1E0,6E1,1E0,5.1E1,2.5E1,3.6E1,2.2E1,8.7E1,5E0,2E1,2.6E1],"tree_param":{"num_deleted":"0","num_feature":"31","num_nodes":"53","size_leaf_vector":"1"}},{"base_weights":[-2.5803205E-3,-2.135755E0,4.7564154E0,-2.7296147E0,7.293877E-2,3.2487056E0,5.7774167E0,-1.1367402E-1,-2.2893898E0,1.2674991E0,-1.6973654E0,4.695969E0,1.9010391E0,4.3531075E0,6.352672E0,-1.9757085E0,-3.4113264E0,2.1597085E0,2.0585848E-1,-6.398296E-1,-2.686834E0,5.8847435E-2,1.4820571E-1,2.6785235E0,6.9326144E-1,2.3092132E0,1.4042856E-1,2.0875664E-1,4.7663E0,-7.260214E-2,-4.5875516E-2,2.487171E-2,-1.0544456E-1,3.9041433E-2,8.726447E-2,-2.1703796E-2,3.04041E-2,1.2406222E-2,-2.8195892E-2,-1.5778756E-3,-8.2151495E-2,9.0111576E-2,3.1995714E-2,3.9988864E-2,-2.1070759E-3,7.935041E-2,1.6504953E-2,7.9149425E-2,1.7618704E-1],"categories":[],"categories_nodes":[],"categories_segments":[],"categories_sizes":[],"default_left":[0,0,0,0,0,0,0,0,0,0,0,0,0,0,0,0,0,0,0,0,0,0,0,0,0,0,0,0,0,0,0,0,0,0,0,0,0,0,0,0,0,0,0,0,0,0,0,0,0],"id":6,"left_children":[1,3,5,7,9,11,13,-1,15,17,19,21,23,25,27,29,31,33,35,37,39,-1,-1,41,43,45,-1,-1,47,-1,-1,-1,-1,-1,-1,-1,-1,-1,-1,-1,-1,-1,-1,-1,-1,-1,-1,-1,-1],"loss_changes":[1.5481483E4,1.3821665E3,6.327383E2,3.4376074E2,4.9291663E2,3.4935034E2,8.7049805E1,0E0,1.7710767E2,1.2943866E2,8.976593E1,1.4319824E1,9.682562E1,9.610962E0,1.1980957E1,7.673743E1,6.898694E1,2.9296082E1,5.545248E1,1.837777E1,5.6621094E0,0E0,0E0,1.9104797E1,2.5377003E1,6.3098907E0,0E0,0E0,8.03009E1,0E0,0E0,0E0,0E0,0E0,0E0,0E0,0E0,0E0,0E0,0E0,0E0,0E0,0E0,0E0,0E0,0E0,0E0,0E0,0E0],"parents":[2147483647,0,0,1,1,2,2,3,3,4,4,5,5,6,6,8,8,9,9,10,10,11,11,12,12,13,13,14,14,15,15,16,16,17,17,18,18,19,19,20,20,23,23,24,24,25,25,28,28],"right_children":[2,4,6,8,10,12,14,-1,16,18,20,22,24,26,28,30,32,34,36,38,40,-1,-1,42,44,46,-1,-1,48,-1,-1,-1,-1,-1,-1,-1,-1,-1,-1,-1,-1,-1,-1,-1,-1,-1,-1,-1,-1],"split_conditions":[7.346953E0,5.39818E0,9.158535E0,1.9783423E0,1.2E1,7E0,4.210529E0,-1.1367402E-1,4.4191766E0,6E0,5.610582E0,1E1,1.3E1,9.434355E0,1.3E1,2.6944444E0,2.7222223E0,4.131411E0,6.4931855E0,3.0714285E0,5E-1,5.8847435E-2,1.4820571E-1,1E1,8E0,1.1E1,1.4042856E-1,2.0875664E-1,1.0628074E1,-7.260214E-2,-4.5875516E-2,2.487171E-2,-1.0544456E-1,3.9041433E-2,8.726447E-2,-2.1703796E-2,3.04041E-2,1.2406222E-2,-2.8195892E-2,-1.5778756E-3,-8.2151495E-2,9.0111576E-2,3.1995714E-2,3.9988864E-2,-2.1070759E-3,7.935041E-2,1.6504953E-2,7.9149425E-2,1.7618704E-1],"split_indices":[25,25,25,25,10,0,30,0,26,0,26,10,10,25,0,25,19,26,25,0,0,0,0,1,1,11,0,0,25,0,0,0,0,0,0,0,0,0,0,0,0,0,0,0,0,0,0,0,0],"split_type":[0,0,0,0,0,0,0,0,0,0,0,0,0,0,0,0,0,0,0,0,0,0,0,0,0,0,0,0,0,0,0,0,0,0,0,0,0,0,0,0,0,0,0,0,0,0,0,0,0],"sum_hessian":[1.515E3,1.048E3,4.67E2,8.25E2,2.23E2,1.97E2,2.7E2,2.31E2,5.94E2,1.34E2,8.9E1,8.9E1,1.08E2,9E1,1.8E2,4.75E2,1.19E2,7E1,6.4E1,4.7E1,4.2E1,1.1E1,7.8E1,6.2E1,4.6E1,1.8E1,7.2E1,1.18E2,6.2E1,2.27E2,2.48E2,2E0,1.17E2,3.9E1,3.1E1,3E1,3.4E1,1E1,3.7E1,1E0,4.1E1,4.8E1,1.4E1,2.3E1,2.3E1,1.3E1,5E0,2.7E1,3.5E1],"tree_param":{"num_deleted":"0","num_feature":"31","num_nodes":"49","size_leaf_vector":"1"}},{"base_weights":[3.782047E-2,-2.228723E0,4.2893376E0,-2.685083E0,-2.7027017E-1,2.7804704E0,5.600492E0,-1.10461265E-1,-2.2562947E0,9.3536043E-1,-1.9825435E0,3.9954247E0,1.3823997E0,4.7601113E0,1.9563963E-1,-1.8929249E0,-3.4028027E0,1.7067628E0,-1.5121305E-1,5.1192988E-2,-2.3988953E0,2.84071E0,4.98985E0,2.3238983E0,2.766243E-1,5.83726E0,2.9335082E0,-2.5368555E-2,-6.425306E-2,-4.4329498E-2,-1.0693463E-1,6.3806325E-2,1.5755415E-2,2.1493053E-2,-2.3008572E-2,-1.333736E-2,1.8415062E-2,-8.039025E-2,-1.4845892E-2,8.688732E-2,6.9746915E-3,1.5129294E-1,7.377362E-3,2.211593E-2,8.434908E-2,-3.6784012E-2,3.5641525E-2,4.288488E-2,1.783939E-1,9.5984034E-2,3.0084465E-2],"categories":[],"categories_nodes":[],"categories_segments":[],"categories_sizes":[],"default_left":[0,0,0,0,0,0,0,0,0,0,0,0,0,0,0,0,0,0,0,0,0,0,0,0,0,0,0,0,0,0,0,0,0,0,0,0,0,0,0,0,0,0,0,0,0,0,0,0,0,0,0],"id":7,"left_children":[1,3,5,7,9,11,13,-1,15,17,19,21,23,25,-1,27,29,31,33,35,37,39,41,43,45,47,49,-1,-1,-1,-1,-1,-1,-1,-1,-1,-1,-1,-1,-1,-1,-1,-1,-1,-1,-1,-1,-1,-1,-1,-1],"loss_changes":[1.4964712E4,9.0175E2,9.904531E2,3.0942578E2,4.1595267E2,4.157162E2,6.456152E1,0E0,2.123418E2,1.0103447E2,7.089429E1,8.644043E1,1.3108586E2,2.4295825E2,0E0,1.10045654E2,1.5685913E1,2.916304E1,3.1596596E1,6.664392E0,3.0257996E1,7.496643E0,1.0723755E1,4.3035004E1,9.631103E1,5.63208E0,2.092865E1,0E0,0E0,0E0,0E0,0E0,0E0,0E0,0E0,0E0,0E0,0E0,0E0,0E0,0E0,0E0,0E0,0E0,0E0,0E0,0E0,0E0,0E0,0E0,0E0],"parents":[2147483647,0,0,1,1,2,2,3,3,4,4,5,5,6,6,8,8,9,9,10,10,11,11,12,12,13,13,15,15,16,16,17,17,18,18,19,19,20,20,21,21,22,22,23,23,24,24,25,25,26,26],"right_children":[2,4,6,8,10,12,14,-1,16,18,20,22,24,26,-1,28,30,32,34,36,38,40,42,44,46,48,50,-1,-1,-1,-1,-1,-1,-1,-1,-1,-1,-1,-1,-1,-1,-1,-1,-1,-1,-1,-1,-1,-1,-1,-1],"split_conditions":[7.068018E0,5.3752756E0,9.158535E0,1.9940757E0,1.2E1,9E0,1.0865946E1,-1.10461265E-1,4.6075172E0,7E0,5E0,4.4785237E0,7E0,1.1E1,1.9563963E-1,2E0,5E-1,7E0,2.9229174E0,5.5E0,3.0714285E0,1E1,9.857142E0,8E0,6E0,2.072003E0,1.3E1,-2.5368555E-2,-6.425306E-2,-4.4329498E-2,-1.0693463E-1,6.3806325E-2,1.5755415E-2,2.1493053E-2,-2.3008572E-2,-1.333736E-2,1.8415062E-2,-8.039025E-2,-1.4845892E-2,8.688732E-2,6.9746915E-3,1.5129294E-1,7.377362E-3,2.211593E-2,8.434908E-2,-3.6784012E-2,3.5641525E-2,4.288488E-2,1.783939E-1,9.5984034E-2,3.0084465E-2],"split_indices":[25,25,25,25,10,0,25,0,28,0,0,26,1,0,0,0,0,13,26,11,9,13,19,11,9,26,1,0,0,0,0,0,0,0,0,0,0,0,0,0,0,0,0,0,0,0,0,0,0,0,0],"split_type":[0,0,0,0,0,0,0,0,0,0,0,0,0,0,0,0,0,0,0,0,0,0,0,0,0,0,0,0,0,0,0,0,0,0,0,0,0,0,0,0,0,0,0,0,0,0,0,0,0,0,0],"sum_hessian":[1.543E3,1.008E3,5.35E2,8.16E2,1.92E2,2.56E2,2.79E2,2.34E2,5.82E2,1.14E2,7.8E1,1.32E2,1.24E2,1.62E2,1.17E2,4.52E2,1.3E2,6.5E1,4.9E1,1.4E1,6.4E1,7E1,6.2E1,6.4E1,6E1,9.5E1,6.7E1,9.1E1,3.61E2,1.4E1,1.16E2,4.5E1,2E1,2E1,2.9E1,8E0,6E0,5.4E1,1E1,6.8E1,2E0,6.1E1,1E0,1.8E1,4.6E1,2.2E1,3.8E1,4E0,9.1E1,5.6E1,1.1E1],"tree_param":{"num_deleted":"0","num_feature":"31","num_nodes":"51","size_leaf_vector":"1"}},{"base_weights":[6.8071E-2,-2.020426E0,4.4326744E0,-2.5820727E0,5.662161E-2,3.453086E0,1.703714E-1,-3.4407625E0,-2.0764155E0,1.8965709E0,-1.1766026E0,4.699853E0,1.8844852E0,-1.1444759E-1,-2.848403E0,-1.7315624E0,-3.2225816E0,2.3710518E0,4.7336176E-1,1.7268E-2,-2.4074E0,3.5534222E0,1.845427E-1,2.4888844E0,6.449958E-1,-4.6238147E-2,-9.078815E-2,-3.2202307E-2,-6.129979E-2,2.5225537E-2,-9.998042E-2,2.8304812E-2,8.397557E-2,-2.678149E-3,3.922867E-2,2.2915678E-2,-1.7357131E-2,3.1610322E-3,-7.360363E-2,1.09168544E-1,2.9182076E-2,3.230363E-2,9.3469396E-2,-7.512961E-3,3.9406016E-2],"categories":[],"categories_nodes":[],"categories_segments":[],"categories_sizes":[],"default_left":[0,0,0,0,0,0,0,0,0,0,0,0,0,0,0,0,0,0,0,0,0,0,0,0,0,0,0,0,0,0,0,0,0,0,0,0,0,0,0,0,0,0,0,0,0],"id":8,"left_children":[1,3,5,7,9,11,-1,13,15,17,19,21,23,-1,25,27,29,31,33,35,37,39,-1,41,43,-1,-1,-1,-1,-1,-1,-1,-1,-1,-1,-1,-1,-1,-1,-1,-1,-1,-1,-1,-1],"loss_changes":[1.3745316E4,1.1906299E3,4.9776367E2,3.1294287E2,5.148911E2,5.150403E2,0E0,9.942139E0,1.768435E2,5.583914E1,2.0004799E2,1.5031006E2,9.3108154E1,0E0,7.368164E0,7.29552E1,6.501282E1,2.7744415E1,1.419577E1,3.512835E1,9.046112E0,4.153076E0,0E0,6.1994934E1,3.2174767E1,0E0,0E0,0E0,0E0,0E0,0E0,0E0,0E0,0E0,0E0,0E0,0E0,0E0,0E0,0E0,0E0,0E0,0E0,0E0,0E0],"parents":[2147483647,0,0,1,1,2,2,3,3,4,4,5,5,7,7,8,8,9,9,10,10,11,11,12,12,14,14,15,15,16,16,17,17,18,18,19,19,20,20,21,21,23,23,24,24],"right_children":[2,4,6,8,10,12,-1,14,16,18,20,22,24,-1,26,28,30,32,34,36,38,40,-1,42,44,-1,-1,-1,-1,-1,-1,-1,-1,-1,-1,-1,-1,-1,-1,-1,-1,-1,-1,-1,-1],"split_conditions":[7.346953E0,5.544143E0,9.652485E0,2.173633E0,5.5E0,9E0,1.703714E-1,1.5863445E0,4.433538E0,7.6E0,4.467567E0,5.594003E0,1E1,-1.1444759E-1,1.5E0,2.0138888E0,2.7222223E0,3.0550504E0,6.7267547E0,5.5E0,5E-1,1.02E1,1.845427E-1,9E0,7E0,-4.6238147E-2,-9.078815E-2,-3.2202307E-2,-6.129979E-2,2.5225537E-2,-9.998042E-2,2.8304812E-2,8.397557E-2,-2.678149E-3,3.922867E-2,2.2915678E-2,-1.7357131E-2,3.1610322E-3,-7.360363E-2,1.09168544E-1,2.9182076E-2,3.230363E-2,9.3469396E-2,-7.512961E-3,3.9406016E-2],"split_indices":[25,25,25,25,0,0,0,25,26,13,26,26,1,0,7,0,19,8,25,1,1,13,0,11,9,0,0,0,0,0,0,0,0,0,0,0,0,0,0,0,0,0,0,0,0],"split_type":[0,0,0,0,0,0,0,0,0,0,0,0,0,0,0,0,0,0,0,0,0,0,0,0,0,0,0,0,0,0,0,0,0,0,0,0,0,0,0,0,0,0,0,0,0],"sum_hessian":[1.498E3,1.015E3,4.83E2,7.98E2,2.17E2,2.81E2,2.02E2,2.85E2,5.13E2,8.6E1,1.31E2,1.51E2,1.3E2,1.58E2,1.27E2,4.04E2,1.09E2,6.2E1,2.4E1,6.9E1,6.2E1,9.4E1,5.7E1,8.4E1,4.6E1,2.1E1,1.06E2,1.37E2,2.67E2,2E0,1.07E2,1.8E1,4.4E1,1.7E1,7E0,3E1,3.9E1,1E0,6.1E1,8.9E1,5E0,3E1,5.4E1,2.1E1,2.5E1],"tree_param":{"num_deleted":"0","num_feature":"31","num_nodes":"45","size_leaf_vector":"1"}},{"base_weights":[2.6592607E-2,-2.0393825E0,4.2208796E0,-2.5100682E0,-1.1800134E-1,2.5935986E0,5.1835856E0,-1.0809002E-1,-2.1029816E0,1.4535252E0,-1.433975E0,4.0543084E0,1.0773548E0,4.5776625E0,2.0148414E-1,-1.8309596E0,-3.2707574E0,2.1677012E0,9.703748E-2,-4.9268788E-1,-2.3480806E0,1.3167405E-1,2.022881E0,1.9062451E0,-5.3714067E-2,3.2200503E0,5.5325584E0,-6.468814E-2,-3.455093E-2,1.3468866E-2,-9.9810794E-2,2.1926938E-2,7.318332E-2,-1.5470438E-2,3.0167887E-2,1.4133955E-2,-2.8215464E-2,-7.336967E-2,-7.0229154E-3,6.2179703E-2,4.639041E-3,6.786334E-2,2.1710956E-2,1.2621451E-2,-3.7130896E-2,1.1820713E-1,5.4162584E-2,1.6679093E-1,1.0022454E-2],"categories":[],"categories_nodes":[],"categories_segments":[],"categories_sizes":[],"default_left":[0,0,0,0,0,0,0,0,0,0,0,0,0,0,0,0,0,0,0,0,0,0,0,0,0,0,0,0,0,0,0,0,0,0,0,0,0,0,0,0,0,0,0,0,0,0,0,0,0],"id":9,"left_children":[1,3,5,7,9,11,13,-1,15,17,19,21,23,25,-1,27,29,31,33,35,37,-1,39,41,43,45,47,-1,-1,-1,-1,-1,-1,-1,-1,-1,-1,-1,-1,-1,-1,-1,-1,-1,-1,-1,-1,-1,-1],"loss_changes":[1.299765E4,9.074077E2,7.0824316E2,3.2116406E2,4.3024338E2,4.0783008E2,1.304336E2,0E0,1.6065332E2,9.098149E1,9.1444916E1,2.1583618E1,9.614022E1,2.1557373E2,0E0,9.76272E1,2.9864136E1,1.529245E1,2.3747093E1,2.8976292E1,8.688568E0,0E0,5.363388E-1,1.6643463E1,2.9565945E1,7.54801E1,9.194824E0,0E0,0E0,0E0,0E0,0E0,0E0,0E0,0E0,0E0,0E0,0E0,0E0,0E0,0E0,0E0,0E0,0E0,0E0,0E0,0E0,0E0,0E0],"parents":[2147483647,0,0,1,1,2,2,3,3,4,4,5,5,6,6,8,8,9,9,10,10,11,11,12,12,13,13,15,15,16,16,17,17,18,18,19,19,20,20,22,22,23,23,24,24,25,25,26,26],"right_children":[2,4,6,8,10,12,14,-1,16,18,20,22,24,26,-1,28,30,32,34,36,38,-1,40,42,44,46,48,-1,-1,-1,-1,-1,-1,-1,-1,-1,-1,-1,-1,-1,-1,-1,-1,-1,-1,-1,-1,-1,-1],"split_conditions":[7.068018E0,5.300603E0,8.79696E0,1.8177134E0,7E0,7E0,5.3841634E0,-1.0809002E-1,4.609424E0,7E0,4.467567E0,8.4E0,1.3E1,1.0078159E1,2.0148414E-1,3.0043018E0,5E-1,2.9229174E0,6.1085887E0,2.9645102E0,3.0714285E0,1.3167405E-1,1.02E1,8E0,5.7728734E0,1.2E1,1.2285714E1,-6.468814E-2,-3.455093E-2,1.3468866E-2,-9.9810794E-2,2.1926938E-2,7.318332E-2,-1.5470438E-2,3.0167887E-2,1.4133955E-2,-2.8215464E-2,-7.336967E-2,-7.0229154E-3,6.2179703E-2,4.639041E-3,6.786334E-2,2.1710956E-2,1.2621451E-2,-3.7130896E-2,1.1820713E-1,5.4162584E-2,1.6679093E-1,1.0022454E-2],"split_indices":[25,25,25,25,0,0,26,0,26,13,26,13,10,25,0,25,11,26,25,26,9,0,13,1,26,0,19,0,0,0,0,0,0,0,0,0,0,0,0,0,0,0,0,0,0,0,0,0,0],"split_type":[0,0,0,0,0,0,0,0,0,0,0,0,0,0,0,0,0,0,0,0,0,0,0,0,0,0,0,0,0,0,0,0,0,0,0,0,0,0,0,0,0,0,0,0,0,0,0,0,0],"sum_hessian":[1.49E3,1E3,4.9E2,8.02E2,1.98E2,1.89E2,3.01E2,2.07E2,5.95E2,9E1,1.08E2,9.2E1,9.7E1,2.3E2,7.1E1,4.93E2,1.02E2,5.7E1,3.3E1,5.7E1,5.1E1,7.4E1,1.8E1,5.4E1,4.3E1,1.04E2,1.26E2,3.26E2,1.67E2,1E0,1.01E2,1.2E1,4.5E1,2.1E1,1.2E1,1.8E1,3.9E1,4.8E1,3E0,1.7E1,1E0,3.8E1,1.6E1,3.3E1,1E1,6.3E1,4.1E1,1.25E2,1E0],"tree_param":{"num_deleted":"0","num_feature":"31","num_nodes":"49","size_leaf_vector":"1"}},{"base_weights":[-2.0463469E-2,-1.9933423E0,3.8716528E0,-2.4521227E0,-2.148157E-1,2.29837E0,4.9862156E0,-1.00874126E-1,-2.0349314E0,1.3718945E0,-1.2014544E0,3.7757914E0,1.0445588E0,4.4471617E0,1.9583493E-1,-1.7317493E0,-3.143366E0,1.8027824E0,-5.557346E-3,-3.3980992E-1,-2.3012118E0,4.2101974E0,6.5845035E-2,1.9377234E0,-1.657081E-2,3.0932012E0,1.5908392E-1,-3.2518853E-2,-6.1006587E-2,-9.832131E-2,-3.4724995E-2,6.835758E-2,2.7863037E-2,-1.256312E-2,1.6108079E-2,1.5730985E-2,-2.3879975E-2,-7.4195517E-3,-7.057449E-2,4.3723453E-2,1.317523E-1,2.6478684E-2,7.1080096E-2,2.7459588E-2,-2.3853138E-2,1.1302009E-1,5.8975644E-2],"categories":[],"categories_nodes":[],"categories_segments":[],"categories_sizes":[],"default_left":[0,0,0,0,0,0,0,0,0,0,0,0,0,0,0,0,0,0,0,0,0,0,0,0,0,0,0,0,0,0,0,0,0,0,0,0,0,0,0,0,0,0,0,0,0,0,0],"id":10,"left_children":[1,3,5,7,9,11,13,-1,15,17,19,21,23,25,-1,27,29,31,33,35,37,39,-1,41,43,45,-1,-1,-1,-1,-1,-1,-1,-1,-1,-1,-1,-1,-1,-1,-1,-1,-1,-1,-1,-1,-1],"loss_changes":[1.1710172E4,8.231111E2,8.4225684E2,2.7113818E2,3.4169492E2,3.9151428E2,1.0082861E2,0E0,1.623186E2,4.9906403E1,1.2306848E2,2.2474365E1,1.2052652E2,1.902334E2,0E0,7.773767E1,1.1636841E1,1.60336E1,6.7284026E0,3.4019424E1,3.1986694E0,4.4780273E0,0E0,2.0966125E1,4.934589E1,4.1248108E1,0E0,0E0,0E0,0E0,0E0,0E0,0E0,0E0,0E0,0E0,0E0,0E0,0E0,0E0,0E0,0E0,0E0,0E0,0E0,0E0,0E0],"parents":[2147483647,0,0,1,1,2,2,3,3,4,4,5,5,6,6,8,8,9,9,10,10,11,11,12,12,13,13,15,15,16,16,17,17,18,18,19,19,20,20,21,21,23,23,24,24,25,25],"right_children":[2,4,6,8,10,12,14,-1,16,18,20,22,24,26,-1,28,30,32,34,36,38,40,-1,42,44,46,-1,-1,-1,-1,-1,-1,-1,-1,-1,-1,-1,-1,-1,-1,-1,-1,-1,-1,-1,-1,-1],"split_conditions":[7.068018E0,5.300603E0,8.89848E0,2.0336711E0,6E0,7E0,5.448188E0,-1.00874126E-1,4.6075172E0,7.6E0,4.7782893E0,7.7139645E0,1.3E1,1.00370035E1,1.9583493E-1,2.0138888E0,2E0,2.0138888E0,5.5E0,2.9229174E0,4.7E0,1E1,6.5845035E-2,7.731891E0,7.571429E0,1.2E1,1.5908392E-1,-3.2518853E-2,-6.1006587E-2,-9.832131E-2,-3.4724995E-2,6.835758E-2,2.7863037E-2,-1.256312E-2,1.6108079E-2,1.5730985E-2,-2.3879975E-2,-7.4195517E-3,-7.057449E-2,4.3723453E-2,1.317523E-1,2.6478684E-2,7.1080096E-2,2.7459588E-2,-2.3853138E-2,1.1302009E-1,5.8975644E-2],"split_indices":[25,25,25,25,0,0,26,0,28,13,26,29,10,25,0,0,9,9,11,26,13,10,0,25,19,0,0,0,0,0,0,0,0,0,0,0,0,0,0,0,0,0,0,0,0,0,0],"split_type":[0,0,0,0,0,0,0,0,0,0,0,0,0,0,0,0,0,0,0,0,0,0,0,0,0,0,0,0,0,0,0,0,0,0,0,0,0,0,0,0,0,0,0,0,0,0,0],"sum_hessian":[1.515E3,1.007E3,5.08E2,7.99E2,2.08E2,2.17E2,2.91E2,2.4E2,5.59E2,7.9E1,1.29E2,9.5E1,1.22E2,2.3E2,6.1E1,4.49E2,1.1E2,5.9E1,2E1,7.6E1,5.3E1,6.8E1,2.7E1,6.4E1,5.8E1,9.8E1,1.32E2,1.5E2,2.99E2,1E2,1E1,3.3E1,2.6E1,1.2E1,8E0,2.6E1,5E1,2E0,5.1E1,7E0,6.1E1,2.3E1,4.1E1,2.6E1,3.2E1,5.4E1,4.4E1],"tree_param":{"num_deleted":"0","num_feature":"31","num_nodes":"47","size_leaf_vector":"1"}},{"base_weights":[-1.7104374E-2,-2.1013658E0,3.5824635E0,-3.0797398E0,-1.5667166E0,1.8315154E0,4.7261224E0,-1.0474396E-1,-2.5677462E0,-1.172082E0,-2.5202005E0,3.4524496E0,3.9230856E-1,5.3847976E0,3.6637204E0,-3.3720244E-2,-8.2005225E-2,-1.500944E0,3.7480894E-1,-8.858942E-1,-2.990527E0,6.729822E-2,1.18458755E-1,8.686658E-1,-1.5504845E0,3.377775E0,1.7643224E-1,2.1511676E0,1.5933698E-1,-2.534468E-2,-5.4334592E-2,3.7230246E-2,-1.7200653E-2,-6.81786E-2,2.1735955E-2,1.5000965E-2,-9.100877E-2,4.3644812E-2,5.7863262E-3,1.2308365E-3,-5.0580334E-2,1.02381654E-1,8.152087E-3,7.322029E-2,2.3417398E-2],"categories":[],"categories_nodes":[],"categories_segments":[],"categories_sizes":[],"default_left":[0,0,0,0,0,0,0,0,0,0,0,0,0,0,0,0,0,0,0,0,0,0,0,0,0,0,0,0,0,0,0,0,0,0,0,0,0,0,0,0,0,0,0,0,0],"id":11,"left_children":[1,3,5,7,9,11,13,-1,15,17,19,21,23,25,27,-1,-1,29,31,33,35,-1,-1,37,39,41,-1,43,-1,-1,-1,-1,-1,-1,-1,-1,-1,-1,-1,-1,-1,-1,-1,-1,-1],"loss_changes":[1.1538882E4,4.8536182E2,1.086123E3,2.6635254E1,2.2604822E2,5.3211835E2,1.3788281E2,0E0,2.532129E1,2.3783856E2,1.2741797E2,2.0506836E1,1.2519362E2,9.789111E1,3.042058E2,0E0,0E0,7.009973E1,7.336811E1,1.15427475E2,2.8645996E1,0E0,0E0,4.0585793E1,6.1695557E0,8.991089E-1,0E0,2.3805237E1,0E0,0E0,0E0,0E0,0E0,0E0,0E0,0E0,0E0,0E0,0E0,0E0,0E0,0E0,0E0,0E0,0E0],"parents":[2147483647,0,0,1,1,2,2,3,3,4,4,5,5,6,6,8,8,9,9,10,10,11,11,12,12,13,13,14,14,17,17,18,18,19,19,20,20,23,23,24,24,25,25,27,27],"right_children":[2,4,6,8,10,12,14,-1,16,18,20,22,24,26,28,-1,-1,30,32,34,36,-1,-1,38,40,42,-1,44,-1,-1,-1,-1,-1,-1,-1,-1,-1,-1,-1,-1,-1,-1,-1,-1,-1],"split_conditions":[6.5693445E0,2.316959E0,8.570427E0,1.5863445E0,4.6075172E0,7E0,1.2E1,-1.0474396E-1,1.6666666E0,5.485596E0,2E0,4.332729E0,5.448188E0,3.3020523E0,1.0865946E1,-3.3720244E-2,-8.2005225E-2,2.0138888E0,7E0,3.7680798E0,2.7222223E0,6.729822E-2,1.18458755E-1,5.5E0,3.0714285E0,3.281822E0,1.7643224E-1,6E0,1.5933698E-1,-2.534468E-2,-5.4334592E-2,3.7230246E-2,-1.7200653E-2,-6.81786E-2,2.1735955E-2,1.5000965E-2,-9.100877E-2,4.3644812E-2,5.7863262E-3,1.2308365E-3,-5.0580334E-2,1.02381654E-1,8.152087E-3,7.322029E-2,2.3417398E-2],"split_indices":[25,25,25,25,28,0,0,0,7,25,0,26,26,26,25,0,0,0,0,25,19,0,0,1,1,26,0,15,0,0,0,0,0,0,0,0,0,0,0,0,0,0,0,0,0],"split_type":[0,0,0,0,0,0,0,0,0,0,0,0,0,0,0,0,0,0,0,0,0,0,0,0,0,0,0,0,0,0,0,0,0,0,0,0,0,0,0,0,0,0,0,0,0],"sum_hessian":[1.528E3,9.69E2,5.59E2,3.34E2,6.35E2,2.26E2,3.33E2,1.69E2,1.65E2,4.57E2,1.78E2,1.03E2,1.23E2,1.93E2,1.4E2,2.1E1,1.44E2,3.77E2,8E1,4.3E1,1.35E2,3.8E1,6.5E1,1.01E2,2.2E1,4.6E1,1.47E2,7.9E1,6.1E1,1.27E2,2.5E2,4.1E1,3.9E1,2.2E1,2.1E1,1E0,1.34E2,5.1E1,5E1,2E0,2E1,4.5E1,1E0,6.2E1,1.7E1],"tree_param":{"num_deleted":"0","num_feature":"31","num_nodes":"45","size_leaf_vector":"1"}},{"base_weights":[-7.350232E-2,-1.9305499E0,3.75693E0,-2.2561767E0,7.9632506E-2,2.397478E0,4.9454465E0,-9.647949E-2,-1.879741E0,1.5001752E0,-1.3648405E0,3.127922E0,5.9625E-1,3.5605478E0,5.3597927E0,-1.5294838E0,-2.8100038E0,1.9696779E0,-1.2123561E-1,-4.462807E-1,-2.0945525E0,2.0994763E0,4.275356E0,1.2082448E0,-2.5155592E-1,3.6385186E0,1.9004071E-2,1.7690542E-1,3.8006287E0,-5.5663012E-2,-1.9822918E-2,2.034324E-2,-8.67742E-2,7.561699E-2,2.66997E-2,-1.8697493E-2,1.670391E-2,8.034513E-3,-2.2899622E-2,-6.5758815E-3,-6.487868E-2,2.6809005E-2,6.929051E-2,1.2949787E-1,5.9119174E-3,1.1917827E-2,5.332739E-2,-2.9000983E-2,1.6867014E-2,2.0782972E-2,1.1149183E-1,6.020133E-2,1.484727E-1],"categories":[],"categories_nodes":[],"categories_segments":[],"categories_sizes":[],"default_left":[0,0,0,0,0,0,0,0,0,0,0,0,0,0,0,0,0,0,0,0,0,0,0,0,0,0,0,0,0,0,0,0,0,0,0,0,0,0,0,0,0,0,0,0,0,0,0,0,0,0,0,0,0],"id":12,"left_children":[1,3,5,7,9,11,13,-1,15,17,19,21,23,25,27,29,31,33,35,37,39,41,43,45,47,49,-1,-1,51,-1,-1,-1,-1,-1,-1,-1,-1,-1,-1,-1,-1,-1,-1,-1,-1,-1,-1,-1,-1,-1,-1,-1,-1],"loss_changes":[1.0848474E4,6.731411E2,7.453501E2,2.8916797E2,3.1392398E2,3.090735E2,5.4350586E1,0E0,1.8932373E2,5.9810745E1,4.6267807E1,1.5691248E2,4.0952515E1,5.5925293E0,4.7875977E1,1.3006946E2,5.8997314E1,2.4470856E1,9.223521E0,1.0078056E1,2.8636932E0,1.5027649E1,8.529053E0,1.724665E1,2.3668707E1,3.644104E0,0E0,0E0,8.013849E1,0E0,0E0,0E0,0E0,0E0,0E0,0E0,0E0,0E0,0E0,0E0,0E0,0E0,0E0,0E0,0E0,0E0,0E0,0E0,0E0,0E0,0E0,0E0,0E0],"parents":[2147483647,0,0,1,1,2,2,3,3,4,4,5,5,6,6,8,8,9,9,10,10,11,11,12,12,13,13,14,14,15,15,16,16,17,17,18,18,19,19,20,20,21,21,22,22,23,23,24,24,25,25,28,28],"right_children":[2,4,6,8,10,12,14,-1,16,18,20,22,24,26,28,30,32,34,36,38,40,42,44,46,48,50,-1,-1,52,-1,-1,-1,-1,-1,-1,-1,-1,-1,-1,-1,-1,-1,-1,-1,-1,-1,-1,-1,-1,-1,-1,-1,-1],"split_conditions":[7.068018E0,5.706288E0,9.158535E0,1.9940757E0,8E0,1.1E1,3.4350226E0,-9.647949E-2,4.194539E0,8E0,4.963024E0,4.4191766E0,8E0,1.5E1,1.3E1,3.3325667E0,3.642857E0,2.0138888E0,6.250556E0,6.8E0,2E0,7.346953E0,9.857142E0,8E0,6E0,5E-1,1.9004071E-2,1.7690542E-1,1.0512294E1,-5.5663012E-2,-1.9822918E-2,2.034324E-2,-8.67742E-2,7.561699E-2,2.66997E-2,-1.8697493E-2,1.670391E-2,8.034513E-3,-2.2899622E-2,-6.5758815E-3,-6.487868E-2,2.6809005E-2,6.929051E-2,1.2949787E-1,5.9119174E-3,1.1917827E-2,5.332739E-2,-2.9000983E-2,1.6867014E-2,2.0782972E-2,1.1149183E-1,6.020133E-2,1.484727E-1],"split_indices":[25,25,25,25,0,0,26,0,26,13,26,26,1,3,0,25,13,9,25,13,1,25,19,11,9,4,0,0,25,0,0,0,0,0,0,0,0,0,0,0,0,0,0,0,0,0,0,0,0,0,0,0,0],"split_type":[0,0,0,0,0,0,0,0,0,0,0,0,0,0,0,0,0,0,0,0,0,0,0,0,0,0,0,0,0,0,0,0,0,0,0,0,0,0,0,0,0,0,0,0,0,0,0,0,0,0,0,0,0],"sum_hessian":[1.515E3,1.022E3,4.93E2,8.79E2,1.43E2,2.37E2,2.56E2,2.37E2,6.42E2,7.2E1,7.1E1,1.66E2,7.1E1,7E1,1.86E2,4.76E2,1.66E2,5.5E1,1.7E1,3.5E1,3.6E1,9.5E1,7.1E1,4E1,3.1E1,6.7E1,3E0,1.28E2,5.8E1,3.42E2,1.34E2,3E0,1.63E2,3.2E1,2.3E1,1E1,7E0,1.1E1,2.4E1,2E0,3.4E1,1.8E1,7.7E1,7E1,1E0,2E1,2E1,1.6E1,1.5E1,3E0,6.4E1,2.8E1,3E1],"tree_param":{"num_deleted":"0","num_feature":"31","num_nodes":"53","size_leaf_vector":"1"}},{"base_weights":[-1.940254E-2,-1.723925E0,3.7199857E0,-2.2251322E0,2.5431685E-2,2.684178E0,1.4322242E-1,-9.583493E-2,-1.8832726E0,1.535963E0,-1.1528292E0,3.377355E0,8.984698E-1,-1.6538674E0,-2.9469776E0,2.3628407E0,4.500861E-1,-2.4128707E-1,-2.101337E0,2.2693481E0,1.3566592E-1,1.455855E0,-2.055488E-2,-5.440411E-2,-1.8442288E-2,1.3589125E-2,-9.0091944E-2,3.5747323E-2,9.146496E-2,-1.26038855E-2,4.2032875E-2,2.128068E-2,-2.1084419E-2,-7.2056524E-2,-2.8630802E-2,7.7646546E-2,4.4612166E-2,1.1640001E-2,5.7874724E-2,-2.0668957E-2,1.5018468E-2],"categories":[],"categories_nodes":[],"categories_segments":[],"categories_sizes":[],"default_left":[0,0,0,0,0,0,0,0,0,0,0,0,0,0,0,0,0,0,0,0,0,0,0,0,0,0,0,0,0,0,0,0,0,0,0,0,0,0,0,0,0],"id":13,"left_children":[1,3,5,7,9,11,-1,-1,13,15,17,19,21,23,25,27,29,31,33,35,-1,37,39,-1,-1,-1,-1,-1,-1,-1,-1,-1,-1,-1,-1,-1,-1,-1,-1,-1,-1],"loss_changes":[9.669358E3,9.1389844E2,4.5455176E2,2.3834326E2,4.306661E2,2.9551855E2,0E0,0E0,1.2472632E2,8.985867E1,1.1505112E2,1.7574829E2,3.9592934E1,7.967139E1,2.6252197E1,2.9240479E1,4.5977554E1,3.5398785E1,1.1290222E1,5.949524E0,0E0,2.0517525E1,1.3568629E1,0E0,0E0,0E0,0E0,0E0,0E0,0E0,0E0,0E0,0E0,0E0,0E0,0E0,0E0,0E0,0E0,0E0,0E0],"parents":[2147483647,0,0,1,1,2,2,3,3,4,4,5,5,8,8,9,9,10,10,11,11,12,12,13,13,14,14,15,15,16,16,17,17,18,18,19,19,21,21,22,22],"right_children":[2,4,6,8,10,12,-1,-1,14,16,18,20,22,24,26,28,30,32,34,36,-1,38,40,-1,-1,-1,-1,-1,-1,-1,-1,-1,-1,-1,-1,-1,-1,-1,-1,-1,-1],"split_conditions":[7.346953E0,5.300603E0,9.434355E0,1.8177134E0,7E0,1.2E1,1.4322242E-1,-9.583493E-2,4.609424E0,8E0,4.467567E0,4.332729E0,8E0,3.9769304E0,3.34664E0,9E0,7E0,3.0245101E0,2.0138888E0,1E1,1.3566592E-1,8E0,6E0,-5.440411E-2,-1.8442288E-2,1.3589125E-2,-9.0091944E-2,3.5747323E-2,9.146496E-2,-1.26038855E-2,4.2032875E-2,2.128068E-2,-2.1084419E-2,-7.2056524E-2,-2.8630802E-2,7.7646546E-2,4.4612166E-2,1.1640001E-2,5.7874724E-2,-2.0668957E-2,1.5018468E-2],"split_indices":[25,25,25,25,0,0,0,0,26,1,26,26,1,25,14,10,11,26,9,1,0,11,9,0,0,0,0,0,0,0,0,0,0,0,0,0,0,0,0,0,0],"split_type":[0,0,0,0,0,0,0,0,0,0,0,0,0,0,0,0,0,0,0,0,0,0,0,0,0,0,0,0,0,0,0,0,0,0,0,0,0,0,0,0,0],"sum_hessian":[1.507E3,1.037E3,4.7E2,8.05E2,2.32E2,2.46E2,2.24E2,1.99E2,6.06E2,1.01E2,1.31E2,1.74E2,7.2E1,5.09E2,9.7E1,5.4E1,4.7E1,7E1,6.1E1,9.6E1,7.8E1,4.3E1,2.9E1,4.38E2,7.1E1,1E0,9.6E1,2.5E1,2.9E1,2.6E1,2.1E1,2.2E1,4.8E1,4.4E1,1.7E1,6E1,3.6E1,1.6E1,2.7E1,1.2E1,1.7E1],"tree_param":{"num_deleted":"0","num_feature":"31","num_nodes":"41","size_leaf_vector":"1"}},{"base_weights":[1.6552811E-2,-1.642248E0,3.7701263E0,-2.1706276E0,4.955521E-3,2.8505552E0,4.8238964E0,-9.717048E-2,-1.8737732E0,1.5994991E0,-1.0582294E0,3.663471E0,1.2956827E0,3.4082227E0,1.5552719E-1,-1.659327E0,-2.989142E0,2.3491635E0,4.489502E-1,-1.5837327E-1,-1.9825432E0,2.7240682E0,4.9425197E0,1.969868E0,5.5014503E-1,1.0331108E-1,7.1066665E-3,-6.275946E-2,-3.7547998E-2,1.352118E-2,-9.1472164E-2,3.2136273E-2,8.71278E-2,-6.671614E-3,3.4998547E-2,-2.3077182E-2,1.2160746E-2,-1.6418604E-2,-6.606113E-2,5.3691484E-2,9.42627E-2,1.2863445E-2,1.4938644E-1,1.6504789E-2,6.661597E-2,-8.497816E-3,3.2944728E-2],"categories":[],"categories_nodes":[],"categories_segments":[],"categories_sizes":[],"default_left":[0,0,0,0,0,0,0,0,0,0,0,0,0,0,0,0,0,0,0,0,0,0,0,0,0,0,0,0,0,0,0,0,0,0,0,0,0,0,0,0,0,0,0,0,0,0,0],"id":14,"left_children":[1,3,5,7,9,11,13,-1,15,17,19,21,23,25,-1,27,29,31,33,35,37,39,41,43,45,-1,-1,-1,-1,-1,-1,-1,-1,-1,-1,-1,-1,-1,-1,-1,-1,-1,-1,-1,-1,-1,-1],"loss_changes":[9.426643E3,9.139199E2,3.8086963E2,2.2179272E2,4.492398E2,3.049016E2,1.8271484E1,0E0,1.2684448E2,8.615445E1,1.3067828E2,1.3454004E2,4.333658E1,2.3346558E0,0E0,8.269653E1,2.6661743E1,2.9136078E1,2.4423473E1,3.1174435E1,1.8546692E1,1.4065369E1,1.8823242E-1,1.1329407E1,2.576131E1,0E0,0E0,0E0,0E0,0E0,0E0,0E0,0E0,0E0,0E0,0E0,0E0,0E0,0E0,0E0,0E0,0E0,0E0,0E0,0E0,0E0,0E0],"parents":[2147483647,0,0,1,1,2,2,3,3,4,4,5,5,6,6,8,8,9,9,10,10,11,11,12,12,13,13,15,15,16,16,17,17,18,18,19,19,20,20,21,21,22,22,23,23,24,24],"right_children":[2,4,6,8,10,12,14,-1,16,18,20,22,24,26,-1,28,30,32,34,36,38,40,42,44,46,-1,-1,-1,-1,-1,-1,-1,-1,-1,-1,-1,-1,-1,-1,-1,-1,-1,-1,-1,-1,-1,-1],"split_conditions":[7.346953E0,5.300603E0,9.652485E0,1.6237774E0,6E0,1E1,3.4350226E0,-9.717048E-2,4.609424E0,9E0,4.467567E0,5.0003924E0,7E0,1.4E1,1.5552719E-1,2.5707314E0,3.34664E0,9E0,7E0,6.4565606E0,2E0,8.072319E0,1.1E1,8E0,7E0,1.0331108E-1,7.1066665E-3,-6.275946E-2,-3.7547998E-2,1.352118E-2,-9.1472164E-2,3.2136273E-2,8.71278E-2,-6.671614E-3,3.4998547E-2,-2.3077182E-2,1.2160746E-2,-1.6418604E-2,-6.606113E-2,5.3691484E-2,9.42627E-2,1.2863445E-2,1.4938644E-1,1.6504789E-2,6.661597E-2,-8.497816E-3,3.2944728E-2],"split_indices":[25,25,25,25,0,0,26,0,26,1,26,26,1,23,0,25,14,10,11,25,2,25,10,11,9,0,0,0,0,0,0,0,0,0,0,0,0,0,0,0,0,0,0,0,0,0,0],"split_type":[0,0,0,0,0,0,0,0,0,0,0,0,0,0,0,0,0,0,0,0,0,0,0,0,0,0,0,0,0,0,0,0,0,0,0,0,0,0,0,0,0,0,0,0,0,0,0],"sum_hessian":[1.504E3,1.045E3,4.59E2,7.9E2,2.55E2,2.55E2,2.04E2,1.61E2,6.29E2,1.01E2,1.54E2,1.63E2,9.2E1,5.2E1,1.52E2,5.38E2,9.1E1,5.8E1,4.3E1,8.1E1,7.3E1,1.03E2,6E1,4.4E1,4.8E1,5.1E1,1E0,2.51E2,2.87E2,1E0,9E1,2.2E1,3.6E1,2.4E1,1.9E1,3.8E1,4.3E1,1.2E1,6.1E1,4E1,6.3E1,1E0,5.9E1,9E0,3.5E1,2E1,2.8E1],"tree_param":{"num_deleted":"0","num_feature":"31","num_nodes":"47","size_leaf_vector":"1"}},{"base_weights":[3.534937E-2,-1.8715854E0,3.2404523E0,-2.708746E0,-1.3792987E0,1.6507636E0,4.2804112E0,-9.3852036E-2,-2.219291E0,-1.1344727E0,-2.6801527E0,3.070337E0,4.4069427E-1,3.772892E0,1.7385153E-1,-1.1104861E0,-7.2541595E-2,-1.4890047E0,1.6958757E-1,-7.8193486E-1,-2.8639636E0,2.3315985E0,3.9793375E0,9.2841625E-1,-1.1335819E0,2.9842596E0,1.4979218E-1,-3.4920804E-2,-5.867312E-3,-3.7884545E-2,-7.264556E-2,3.415866E-2,-2.859066E-2,-3.9445173E-2,2.2988085E-2,-8.686183E-2,-1.5903782E-3,7.069107E-2,3.1121587E-3,1.2483113E-1,1.9556604E-2,4.2895284E-2,7.918446E-3,2.7781911E-3,-4.269652E-2,1.1125824E-1,5.418733E-2],"categories":[],"categories_nodes":[],"categories_segments":[],"categories_sizes":[],"default_left":[0,0,0,0,0,0,0,0,0,0,0,0,0,0,0,0,0,0,0,0,0,0,0,0,0,0,0,0,0,0,0,0,0,0,0,0,0,0,0,0,0,0,0,0,0,0,0],"id":15,"left_children":[1,3,5,7,9,11,13,-1,15,17,19,21,23,25,-1,27,-1,29,31,33,35,37,39,41,43,45,-1,-1,-1,-1,-1,-1,-1,-1,-1,-1,-1,-1,-1,-1,-1,-1,-1,-1,-1,-1,-1],"loss_changes":[9.192096E3,3.6995117E2,8.921216E2,3.5944336E1,1.7716089E2,3.883246E2,1.4896533E2,0E0,2.5362305E1,2.4028778E2,2.0902893E1,2.4117859E1,1.0507735E2,1.8146167E2,0E0,6.2516785E-1,0E0,7.0555664E1,1.305281E2,1.7413277E1,6.477173E0,2.640747E0,1.0621338E1,3.209754E1,1.2378868E1,1.1497986E2,0E0,0E0,0E0,0E0,0E0,0E0,0E0,0E0,0E0,0E0,0E0,0E0,0E0,0E0,0E0,0E0,0E0,0E0,0E0,0E0,0E0],"parents":[2147483647,0,0,1,1,2,2,3,3,4,4,5,5,6,6,8,8,9,9,10,10,11,11,12,12,13,13,15,15,17,17,18,18,19,19,20,20,21,21,22,22,23,23,24,24,25,25],"right_children":[2,4,6,8,10,12,14,-1,16,18,20,22,24,26,-1,28,-1,30,32,34,36,38,40,42,44,46,-1,-1,-1,-1,-1,-1,-1,-1,-1,-1,-1,-1,-1,-1,-1,-1,-1,-1,-1,-1,-1],"split_conditions":[6.5693445E0,2.316959E0,8.570427E0,1.5863445E0,5.365212E0,7E0,5.517385E0,-9.3852036E-2,5E-1,5.300603E0,5E-1,5.0439024E0,5.1741257E0,1.0865946E1,1.7385153E-1,2.28906E0,-7.2541595E-2,5E0,7E0,4.0749283E0,1.3E1,1E1,1.1E1,7.428571E0,7E0,1.2E1,1.4979218E-1,-3.4920804E-2,-5.867312E-3,-3.7884545E-2,-7.264556E-2,3.415866E-2,-2.859066E-2,-3.9445173E-2,2.2988085E-2,-8.686183E-2,-1.5903782E-3,7.069107E-2,3.1121587E-3,1.2483113E-1,1.9556604E-2,4.2895284E-2,7.918446E-3,2.7781911E-3,-4.269652E-2,1.1125824E-1,5.418733E-2],"split_indices":[25,25,25,25,28,0,26,0,0,25,0,26,26,25,0,8,0,0,0,25,23,13,1,19,1,0,0,0,0,0,0,0,0,0,0,0,0,0,0,0,0,0,0,0,0,0,0],"split_type":[0,0,0,0,0,0,0,0,0,0,0,0,0,0,0,0,0,0,0,0,0,0,0,0,0,0,0,0,0,0,0,0,0,0,0,0,0,0,0,0,0,0,0,0,0,0,0],"sum_hessian":[1.494E3,9.38E2,5.56E2,3.39E2,5.99E2,2.25E2,3.31E2,1.68E2,1.71E2,5.12E2,8.7E1,1E2,1.25E2,2.61E2,7E1,3.1E1,1.4E2,4.02E2,1.1E2,1E1,7.7E1,6.5E1,3.5E1,9.7E1,2.8E1,1.69E2,9.2E1,2.8E1,3E0,3.33E2,6.9E1,5.9E1,5.1E1,8E0,2E0,7.6E1,1E0,6.4E1,1E0,3.2E1,3E0,5.2E1,4.5E1,6E0,2.2E1,9.8E1,7.1E1],"tree_param":{"num_deleted":"0","num_feature":"31","num_nodes":"47","size_leaf_vector":"1"}},{"base_weights":[1.0307503E-1,-1.6529845E0,3.4692807E0,-2.0810454E0,2.8277948E-2,2.0958831E0,4.3315325E0,-2.7460277E0,-1.7087495E0,1.3824203E0,-9.856721E-1,3.3847291E0,8.853846E-1,3.8400543E0,1.6737597E-1,-2.300008E0,-9.243695E-2,-1.3118026E0,-2.4421349E0,2.0906413E0,6.7747056E-1,2.544737E-1,-1.5831772E0,6.720234E-2,4.0759945E0,1.5125973E0,-2.304699E-1,2.981199E0,1.5231687E-1,-8.489697E-2,-5.5505604E-2,-4.6644226E-2,-2.2451818E-2,-3.5415255E-2,-8.627726E-2,1.688558E-2,6.801297E-2,-4.437162E-3,3.7813555E-2,-1.9294124E-2,2.396067E-2,-5.7018567E-2,-1.638486E-2,1.2545103E-1,1.0926589E-2,5.7429515E-2,2.3108512E-2,8.572099E-3,-3.2524526E-2,1.0941086E-1,5.671619E-2],"categories":[],"categories_nodes":[],"categories_segments":[],"categories_sizes":[],"default_left":[0,0,0,0,0,0,0,0,0,0,0,0,0,0,0,0,0,0,0,0,0,0,0,0,0,0,0,0,0,0,0,0,0,0,0,0,0,0,0,0,0,0,0,0,0,0,0,0,0,0,0],"id":16,"left_children":[1,3,5,7,9,11,13,15,17,19,21,23,25,27,-1,29,-1,31,33,35,37,39,41,-1,43,45,47,49,-1,-1,-1,-1,-1,-1,-1,-1,-1,-1,-1,-1,-1,-1,-1,-1,-1,-1,-1,-1,-1,-1,-1],"loss_changes":[8.777334E3,7.027046E2,5.5737305E2,1.691482E2,2.855387E2,3.0640625E2,8.174414E1,5.0822754E0,1.3303296E2,3.7352432E1,9.0192604E1,3.1890503E1,8.082928E1,1.7614429E2,0E0,6.2372437E0,0E0,4.1142517E1,7.824817E1,4.9425507E0,2.5953432E1,2.3573566E1,2.147432E1,0E0,1.3964478E1,1.439592E1,2.1379314E1,7.590698E1,0E0,0E0,0E0,0E0,0E0,0E0,0E0,0E0,0E0,0E0,0E0,0E0,0E0,0E0,0E0,0E0,0E0,0E0,0E0,0E0,0E0,0E0,0E0],"parents":[2147483647,0,0,1,1,2,2,3,3,4,4,5,5,6,6,7,7,8,8,9,9,10,10,11,11,12,12,13,13,15,15,17,17,18,18,19,19,20,20,21,21,22,22,24,24,25,25,26,26,27,27],"right_children":[2,4,6,8,10,12,14,16,18,20,22,24,26,28,-1,30,-1,32,34,36,38,40,42,-1,44,46,48,50,-1,-1,-1,-1,-1,-1,-1,-1,-1,-1,-1,-1,-1,-1,-1,-1,-1,-1,-1,-1,-1,-1,-1],"split_conditions":[7.068018E0,5.300603E0,8.79696E0,2.1376572E0,5.5E0,7E0,5.414767E0,1.5165751E0,3.521705E0,7E0,1.2E1,5.0003924E0,8E0,1.1080563E1,1.6737597E-1,1.2746173E0,-9.243695E-2,2.976486E0,2E0,8E0,7E0,6.0641384E0,3.0714285E0,6.720234E-2,8.714286E0,1.2E1,5.1741257E0,1.2E1,1.5231687E-1,-8.489697E-2,-5.5505604E-2,-4.6644226E-2,-2.2451818E-2,-3.5415255E-2,-8.627726E-2,1.688558E-2,6.801297E-2,-4.437162E-3,3.7813555E-2,-1.9294124E-2,2.396067E-2,-5.7018567E-2,-1.638486E-2,1.2545103E-1,1.0926589E-2,5.7429515E-2,2.3108512E-2,8.572099E-3,-3.2524526E-2,1.0941086E-1,5.671619E-2],"split_indices":[25,25,25,25,0,0,26,14,26,1,16,26,19,25,0,25,0,25,0,10,11,25,9,0,19,0,26,0,0,0,0,0,0,0,0,0,0,0,0,0,0,0,0,0,0,0,0,0,0,0,0],"split_type":[0,0,0,0,0,0,0,0,0,0,0,0,0,0,0,0,0,0,0,0,0,0,0,0,0,0,0,0,0,0,0,0,0,0,0,0,0,0,0,0,0,0,0,0,0,0,0,0,0,0,0],"sum_hessian":[1.475E3,9.71E2,5.04E2,7.73E2,1.98E2,2.01E2,3.03E2,2.66E2,5.07E2,8.4E1,1.14E2,9.3E1,1.08E2,2.32E2,7.1E1,1.31E2,1.35E2,3.38E2,1.69E2,3.7E1,4.7E1,3.8E1,7.6E1,4.3E1,5E1,6.8E1,4E1,1.47E2,8.5E1,4.8E1,8.3E1,2.3E2,1.08E2,4.8E1,1.21E2,6E0,3.1E1,2.1E1,2.6E1,1.4E1,2.4E1,5.5E1,2.1E1,4.8E1,2E0,3.9E1,2.9E1,2.7E1,1.3E1,8.4E1,6.3E1],"tree_param":{"num_deleted":"0","num_feature":"31","num_nodes":"51","size_leaf_vector":"1"}},{"base_weights":[6.3249897E-3,-1.5502187E0,3.3959894E0,-2.0171921E0,-4.752356E-3,2.5683866E0,4.4747567E0,-2.6565444E0,-1.6533803E0,1.3413539E0,-9.265802E-1,3.2900758E0,9.2044234E-1,1.9964527E-2,1.3490628E-1,-8.8108264E-2,-2.1590264E0,-1.2839051E0,-2.350468E0,2.08439E0,4.2310473E-1,-5.1219203E-2,-1.774822E0,2.4512746E0,4.523329E0,2.4275724E-2,1.3376592E0,-2.8363818E-2,-7.032547E-2,-2.0538555E-2,-4.6495676E-2,-3.6349054E-2,-8.057145E-2,1.9395089E-2,7.25475E-2,-1.1017238E-2,3.761028E-2,1.7038774E-2,-1.8205315E-2,-2.4391487E-2,-6.2375963E-2,7.4136995E-2,-1.8033981E-5,1.1200244E-2,1.3667841E-1,1.733841E-2,-9.804788E-3,5.3820927E-2,1.3893936E-2],"categories":[],"categories_nodes":[],"categories_segments":[],"categories_sizes":[],"default_left":[0,0,0,0,0,0,0,0,0,0,0,0,0,0,0,0,0,0,0,0,0,0,0,0,0,0,0,0,0,0,0,0,0,0,0,0,0,0,0,0,0,0,0,0,0,0,0,0,0],"id":17,"left_children":[1,3,5,7,9,11,13,15,17,19,21,23,25,-1,-1,-1,27,29,31,33,35,37,39,41,43,45,47,-1,-1,-1,-1,-1,-1,-1,-1,-1,-1,-1,-1,-1,-1,-1,-1,-1,-1,-1,-1,-1,-1],"loss_changes":[7.829764E3,7.339126E2,3.5946924E2,1.597019E2,3.0526605E2,3.131062E2,1.5515137E0,6.6585693E0,1.1652258E2,6.381964E1,1.07953064E2,1.4110669E2,3.3862167E1,0E0,0E0,0E0,1.54328E1,4.968109E1,4.9015564E1,1.8105835E1,3.5780388E1,2.8213678E1,1.3210388E1,6.0753784E0,1.1063232E0,7.553874E0,2.0590439E1,0E0,0E0,0E0,0E0,0E0,0E0,0E0,0E0,0E0,0E0,0E0,0E0,0E0,0E0,0E0,0E0,0E0,0E0,0E0,0E0,0E0,0E0],"parents":[2147483647,0,0,1,1,2,2,3,3,4,4,5,5,6,6,7,7,8,8,9,9,10,10,11,11,12,12,16,16,17,17,18,18,19,19,20,20,21,21,22,22,23,23,24,24,25,25,26,26],"right_children":[2,4,6,8,10,12,14,16,18,20,22,24,26,-1,-1,-1,28,30,32,34,36,38,40,42,44,46,48,-1,-1,-1,-1,-1,-1,-1,-1,-1,-1,-1,-1,-1,-1,-1,-1,-1,-1,-1,-1,-1,-1],"split_conditions":[7.346953E0,5.300603E0,9.652485E0,2.1376572E0,7E0,1.1E1,1.1E1,1.5863445E0,3.991639E0,8E0,4.467567E0,5.0003924E0,8.395645E0,1.9964527E-2,1.3490628E-1,-8.8108264E-2,1.5E0,2.0138888E0,2E0,8E0,7E0,5.5E0,6.428571E0,6.1073728E0,1.1E1,4.1599927E0,9E0,-2.8363818E-2,-7.032547E-2,-2.0538555E-2,-4.6495676E-2,-3.6349054E-2,-8.057145E-2,1.9395089E-2,7.25475E-2,-1.1017238E-2,3.761028E-2,1.7038774E-2,-1.8205315E-2,-2.4391487E-2,-6.2375963E-2,7.4136995E-2,-1.8033981E-5,1.1200244E-2,1.3667841E-1,1.733841E-2,-9.804788E-3,5.3820927E-2,1.3893936E-2],"split_indices":[25,25,25,25,0,0,10,25,28,1,26,26,25,0,0,0,13,0,0,10,11,1,19,14,10,26,1,0,0,0,0,0,0,0,0,0,0,0,0,0,0,0,0,0,0,0,0,0,0],"split_type":[0,0,0,0,0,0,0,0,0,0,0,0,0,0,0,0,0,0,0,0,0,0,0,0,0,0,0,0,0,0,0,0,0,0,0,0,0,0,0,0,0,0,0,0,0,0,0,0,0],"sum_hessian":[1.474E3,1.012E3,4.62E2,7.76E2,2.36E2,2.71E2,1.91E2,2.7E2,5.06E2,9.5E1,1.41E2,1.85E2,8.6E1,2E0,1.89E2,1.57E2,1.13E2,3.4E2,1.66E2,4.9E1,4.6E1,7.2E1,6.9E1,1.19E2,6.6E1,2.9E1,5.7E1,1.9E1,9.4E1,1.1E2,2.3E2,4.3E1,1.23E2,1.2E1,3.7E1,2.5E1,2.1E1,3.4E1,3.8E1,2.1E1,4.8E1,1.18E2,1E0,1E0,6.5E1,1E1,1.9E1,3.4E1,2.3E1],"tree_param":{"num_deleted":"0","num_feature":"31","num_nodes":"49","size_leaf_vector":"1"}},{"base_weights":[9.397654E-2,-1.5068263E0,3.380576E0,-1.9523906E0,-4.9435537E-2,2.6015136E0,4.414244E0,-8.1221625E-2,-1.6687149E0,1.3172666E0,-1.089459E0,3.9108634E0,1.7127358E0,9.562603E-2,1.4246589E-1,-1.441631E0,-2.5796235E0,2.088812E0,3.698572E-1,-5.430877E-1,-2.382494E0,8.047574E-2,1.425248E-1,2.1124403E0,6.4163065E-1,-4.850886E-2,-2.970639E-3,-2.2525834E-2,-8.1705526E-2,1.6018111E-2,7.286999E-2,-1.3825276E-2,3.7595473E-2,1.0243271E-2,-2.4582725E-2,-7.247285E-2,-5.258877E-3,3.5328608E-2,7.602558E-2,2.4490468E-2,-1.8155754E-2],"categories":[],"categories_nodes":[],"categories_segments":[],"categories_sizes":[],"default_left":[0,0,0,0,0,0,0,0,0,0,0,0,0,0,0,0,0,0,0,0,0,0,0,0,0,0,0,0,0,0,0,0,0,0,0,0,0,0,0,0,0],"id":18,"left_children":[1,3,5,7,9,11,13,-1,15,17,19,21,23,-1,-1,25,27,29,31,33,35,-1,-1,37,39,-1,-1,-1,-1,-1,-1,-1,-1,-1,-1,-1,-1,-1,-1,-1,-1],"loss_changes":[8.080364E3,6.703074E2,3.4764258E2,1.4682275E2,3.5826187E2,3.1446118E2,1.0104736E1,0E0,1.03035034E2,7.581287E1,9.45567E1,5.699475E1,7.328247E1,0E0,0E0,1.126629E2,1.8984558E1,2.4723297E1,4.3245388E1,2.7552729E1,8.93219E-1,0E0,0E0,3.7908813E1,1.5105118E1,0E0,0E0,0E0,0E0,0E0,0E0,0E0,0E0,0E0,0E0,0E0,0E0,0E0,0E0,0E0,0E0],"parents":[2147483647,0,0,1,1,2,2,3,3,4,4,5,5,6,6,8,8,9,9,10,10,11,11,12,12,15,15,16,16,17,17,18,18,19,19,20,20,23,23,24,24],"right_children":[2,4,6,8,10,12,14,-1,16,18,20,22,24,-1,-1,26,28,30,32,34,36,-1,-1,38,40,-1,-1,-1,-1,-1,-1,-1,-1,-1,-1,-1,-1,-1,-1,-1,-1],"split_conditions":[7.346953E0,5.300603E0,9.758358E0,1.8685875E0,7E0,5.5E0,3.4858513E0,-8.1221625E-2,5E0,8E0,6.212471E0,5.594003E0,1.5E1,9.562603E-2,1.4246589E-1,3.918369E0,3.3632307E0,8E0,7E0,3.0245101E0,2.0138888E0,8.047574E-2,1.425248E-1,8.255953E0,5.7728734E0,-4.850886E-2,-2.970639E-3,-2.2525834E-2,-8.1705526E-2,1.6018111E-2,7.286999E-2,-1.3825276E-2,3.7595473E-2,1.0243271E-2,-2.4582725E-2,-7.247285E-2,-5.258877E-3,3.5328608E-2,7.602558E-2,2.4490468E-2,-1.8155754E-2],"split_indices":[25,25,25,25,0,0,26,0,0,1,26,26,16,0,0,25,28,10,11,26,9,0,0,25,26,0,0,0,0,0,0,0,0,0,0,0,0,0,0,0,0],"split_type":[0,0,0,0,0,0,0,0,0,0,0,0,0,0,0,0,0,0,0,0,0,0,0,0,0,0,0,0,0,0,0,0,0,0,0,0,0,0,0,0,0],"sum_hessian":[1.526E3,1.028E3,4.98E2,7.86E2,2.42E2,2.94E2,2.04E2,2.03E2,5.83E2,1.04E2,1.38E2,1.12E2,1.82E2,5.5E1,1.49E2,4.77E2,1.06E2,5.4E1,5E1,1.02E2,3.6E1,5.4E1,5.8E1,1.29E2,5.3E1,4.21E2,5.6E1,1E1,9.6E1,1.2E1,4.2E1,2.7E1,2.3E1,2.4E1,7.8E1,3.5E1,1E0,4.6E1,8.3E1,4.8E1,5E0],"tree_param":{"num_deleted":"0","num_feature":"31","num_nodes":"41","size_leaf_vector":"1"}},{"base_weights":[1.341308E-2,-1.5625162E0,3.1063135E0,-1.8822347E0,-2.8607017E-1,1.3899986E0,3.6528037E0,-8.266387E-2,-1.6111579E0,6.1635536E-1,-1.6334237E0,2.4978254E0,3.3872342E-1,4.200837E0,2.7111526E0,-1.3790781E0,-2.4346642E0,1.3723856E0,-2.3507959E-1,-8.24018E-1,-2.029112E0,2.6028197E0,1.2655453E-2,1.1375939E0,-3.5090646E-1,8.6296126E-2,1.4513195E-1,1.5220466E0,1.3116197E-1,-4.7147293E-2,-1.8705899E-2,1.3937619E-2,-7.4254386E-2,2.2517689E-2,6.2375464E-2,1.3622406E-2,-2.3980264E-2,-3.1696413E-2,-6.095562E-3,-6.517195E-2,-1.9031538E-2,7.8873314E-2,5.389757E-3,3.8349483E-2,7.4853227E-3,4.079496E-3,-2.411551E-2,5.393344E-2,-8.2949635E-5],"categories":[],"categories_nodes":[],"categories_segments":[],"categories_sizes":[],"default_left":[0,0,0,0,0,0,0,0,0,0,0,0,0,0,0,0,0,0,0,0,0,0,0,0,0,0,0,0,0,0,0,0,0,0,0,0,0,0,0,0,0,0,0,0,0,0,0,0,0],"id":19,"left_children":[1,3,5,7,9,11,13,-1,15,17,19,21,23,25,27,29,31,33,35,37,39,41,-1,43,45,-1,-1,47,-1,-1,-1,-1,-1,-1,-1,-1,-1,-1,-1,-1,-1,-1,-1,-1,-1,-1,-1,-1,-1],"loss_changes":[7.350179E3,4.050027E2,4.520293E2,1.6669873E2,2.5550641E2,1.4833626E2,1.4070459E2,0E0,1.01897095E2,8.336434E1,1.8542755E1,8.241852E0,4.2213467E1,1.26941895E2,2.728529E2,6.72395E1,2.1007385E1,2.2081802E1,2.6702318E1,4.123646E0,3.701126E0,1.3970032E0,0E0,2.7792892E0,1.00295E1,0E0,0E0,4.1228348E1,0E0,0E0,0E0,0E0,0E0,0E0,0E0,0E0,0E0,0E0,0E0,0E0,0E0,0E0,0E0,0E0,0E0,0E0,0E0,0E0,0E0],"parents":[2147483647,0,0,1,1,2,2,3,3,4,4,5,5,6,6,8,8,9,9,10,10,11,11,12,12,13,13,14,14,15,15,16,16,17,17,18,18,19,19,20,20,21,21,23,23,24,24,27,27],"right_children":[2,4,6,8,10,12,14,-1,16,18,20,22,24,26,28,30,32,34,36,38,40,42,-1,44,46,-1,-1,48,-1,-1,-1,-1,-1,-1,-1,-1,-1,-1,-1,-1,-1,-1,-1,-1,-1,-1,-1,-1,-1],"split_conditions":[7.068018E0,5.300603E0,8.2465925E0,1.7027866E0,1.2E1,7E0,1.2E1,-8.266387E-2,4.131411E0,5.5E0,5.493261E0,6E0,1.2E1,1.3E1,1.104614E1,3.214102E0,2.1527777E0,4.131411E0,2.9645102E0,9E0,2.0138888E0,9.6E0,1.2655453E-2,7E0,9E0,8.6296126E-2,1.4513195E-1,1.3E1,1.3116197E-1,-4.7147293E-2,-1.8705899E-2,1.3937619E-2,-7.4254386E-2,2.2517689E-2,6.2375464E-2,1.3622406E-2,-2.3980264E-2,-3.1696413E-2,-6.095562E-3,-6.517195E-2,-1.9031538E-2,7.8873314E-2,5.389757E-3,3.8349483E-2,7.4853227E-3,4.079496E-3,-2.411551E-2,5.393344E-2,-8.2949635E-5],"split_indices":[25,25,25,25,10,0,0,0,26,0,26,15,10,10,25,25,19,26,26,4,9,13,0,1,11,0,0,1,0,0,0,0,0,0,0,0,0,0,0,0,0,0,0,0,0,0,0,0,0],"split_type":[0,0,0,0,0,0,0,0,0,0,0,0,0,0,0,0,0,0,0,0,0,0,0,0,0,0,0,0,0,0,0,0,0,0,0,0,0,0,0,0,0,0,0,0,0,0,0,0,0],"sum_hessian":[1.498E3,9.94E2,5.04E2,7.93E2,2.01E2,1.26E2,3.78E2,1.77E2,6.16E2,1.22E2,7.9E1,5.8E1,6.8E1,2.28E2,1.5E2,4.91E2,1.25E2,6.3E1,5.9E1,3.1E1,4.8E1,5.4E1,4E0,3E1,3.8E1,8.3E1,1.45E2,9.3E1,5.7E1,3.87E2,1.04E2,1E0,1.24E2,3.9E1,2.4E1,2.7E1,3.2E1,2E1,1.1E1,4.1E1,7E0,5.3E1,1E0,2.4E1,6E0,2E1,1.8E1,7.8E1,1.5E1],"tree_param":{"num_deleted":"0","num_feature":"31","num_nodes":"49","size_leaf_vector":"1"}},{"base_weights":[3.130734E-2,-1.432241E0,3.223346E0,-1.8249838E0,-1.02333635E-1,2.4257667E0,4.1994953E0,-2.4670336E0,-1.4592321E0,1.4336505E0,-1.0147365E0,3.5588095E0,1.4126154E0,2.973956E0,1.3683735E-1,-8.178137E-2,-2.0011888E0,-1.1843615E0,-2.4030895E0,2.0674787E0,4.178735E-1,-1.659718E-1,-1.8315091E0,2.3305483E0,4.3924975E0,1.7536908E0,2.2133902E-1,3.0104074E0,3.752117E-3,-2.859026E-2,-6.557958E-2,-4.2028047E-2,5.9386953E-3,-2.3095785E-2,-7.62042E-2,2.5894562E-2,7.57313E-2,-5.3872084E-3,3.0054584E-2,1.5446262E-2,-1.8908942E-2,-6.396334E-2,-2.2673583E-2,7.084581E-2,2.2041702E-3,1.8036399E-2,1.3379396E-1,6.744081E-2,3.4075983E-2,-1.0039095E-2,2.4121195E-2,9.1850825E-2,1.28353005E-2],"categories":[],"categories_nodes":[],"categories_segments":[],"categories_sizes":[],"default_left":[0,0,0,0,0,0,0,0,0,0,0,0,0,0,0,0,0,0,0,0,0,0,0,0,0,0,0,0,0,0,0,0,0,0,0,0,0,0,0,0,0,0,0,0,0,0,0,0,0,0,0,0,0],"id":20,"left_children":[1,3,5,7,9,11,13,15,17,19,21,23,25,27,-1,-1,29,31,33,35,37,39,41,43,45,47,49,51,-1,-1,-1,-1,-1,-1,-1,-1,-1,-1,-1,-1,-1,-1,-1,-1,-1,-1,-1,-1,-1,-1,-1,-1,-1],"loss_changes":[7.133415E3,5.459263E2,3.2277246E2,1.7174365E2,3.4922437E2,2.916964E2,2.4833008E1,7.2318115E0,1.2249353E2,5.5556305E1,1.0662674E2,7.8861694E1,6.0631714E1,4.555908E0,0E0,0E0,1.3021515E1,1.2652466E2,1.5739502E1,1.9919632E1,1.5552328E1,2.7545715E1,1.7488708E1,3.4675903E0,4.45459E0,2.3576843E1,1.4304003E1,1.5298462E0,0E0,0E0,0E0,0E0,0E0,0E0,0E0,0E0,0E0,0E0,0E0,0E0,0E0,0E0,0E0,0E0,0E0,0E0,0E0,0E0,0E0,0E0,0E0,0E0,0E0],"parents":[2147483647,0,0,1,1,2,2,3,3,4,4,5,5,6,6,7,7,8,8,9,9,10,10,11,11,12,12,13,13,16,16,17,17,18,18,19,19,20,20,21,21,22,22,23,23,24,24,25,25,26,26,27,27],"right_children":[2,4,6,8,10,12,14,16,18,20,22,24,26,28,-1,-1,30,32,34,36,38,40,42,44,46,48,50,52,-1,-1,-1,-1,-1,-1,-1,-1,-1,-1,-1,-1,-1,-1,-1,-1,-1,-1,-1,-1,-1,-1,-1,-1,-1],"split_conditions":[7.346953E0,5.300603E0,9.758358E0,2.173633E0,6E0,7E0,4.210529E0,1.6237774E0,5E0,9E0,4.4191766E0,5.1741257E0,1.1E1,1.4E1,1.3683735E-1,-8.178137E-2,1.7460389E0,3.8549404E0,3.4051921E0,9E0,7E0,3.0245101E0,2.0138888E0,1.2E1,1.1E1,1.2E1,7E0,1.28E1,3.752117E-3,-2.859026E-2,-6.557958E-2,-4.2028047E-2,5.9386953E-3,-2.3095785E-2,-7.62042E-2,2.5894562E-2,7.57313E-2,-5.3872084E-3,3.0054584E-2,1.5446262E-2,-1.8908942E-2,-6.396334E-2,-2.2673583E-2,7.084581E-2,2.2041702E-3,1.8036399E-2,1.3379396E-1,6.744081E-2,3.4075983E-2,-1.0039095E-2,2.4121195E-2,9.1850825E-2,1.28353005E-2],"split_indices":[25,25,25,25,0,0,30,25,0,1,26,26,1,11,0,0,29,25,28,10,11,26,9,17,10,0,9,13,0,0,0,0,0,0,0,0,0,0,0,0,0,0,0,0,0,0,0,0,0,0,0,0,0],"split_type":[0,0,0,0,0,0,0,0,0,0,0,0,0,0,0,0,0,0,0,0,0,0,0,0,0,0,0,0,0,0,0,0,0,0,0,0,0,0,0,0,0,0,0,0,0,0,0,0,0,0,0,0,0],"sum_hessian":[1.517E3,1.042E3,4.75E2,8.03E2,2.39E2,2.71E2,2.04E2,2.81E2,5.22E2,8.8E1,1.51E2,1.22E2,1.49E2,5.7E1,1.47E2,1.65E2,1.16E2,4.13E2,1.09E2,5.1E1,3.7E1,7.7E1,7.4E1,5.7E1,6.5E1,1.14E2,3.5E1,5.6E1,1E0,2.2E1,9.4E1,3.57E2,5.6E1,1.1E1,9.8E1,1.8E1,3.3E1,2E1,1.7E1,3.1E1,4.6E1,5.4E1,2E1,5.6E1,1E0,2E0,6.3E1,5.6E1,5.8E1,1.9E1,1.6E1,5.4E1,2E0],"tree_param":{"num_deleted":"0","num_feature":"31","num_nodes":"53","size_leaf_vector":"1"}},{"base_weights":[-1.661334E-2,-1.4917928E0,2.9078252E0,-1.8255265E0,-2.0174788E-1,1.5712519E0,3.5666807E0,-7.771355E-2,-1.6113322E0,1.1549314E0,-1.1477822E0,2.8179917E0,6.0324734E-1,4.110145E0,2.601269E0,-1.3103893E0,-2.258096E0,1.6546142E0,4.1636962E-1,-1.4615841E0,3.643602E-1,3.1282406E0,4.6783075E-2,1.2470642E0,-2.1332625E-1,2.4988384E0,1.3631159E-1,1.3790921E0,1.121631E-1,-5.167429E-2,-2.6795225E-2,-7.19884E-2,-3.792942E-2,1.3770639E-2,5.6539014E-2,-4.1579367E-3,2.9328324E-2,-2.4750233E-2,-5.7286818E-2,1.7254407E-2,-2.0291067E-3,9.569302E-2,1.2574429E-2,3.970769E-2,6.079272E-3,1.7446076E-2,-2.0888317E-2,7.861325E-2,2.4639446E-2,4.7321577E-2,7.858565E-3],"categories":[],"categories_nodes":[],"categories_segments":[],"categories_sizes":[],"default_left":[0,0,0,0,0,0,0,0,0,0,0,0,0,0,0,0,0,0,0,0,0,0,0,0,0,0,0,0,0,0,0,0,0,0,0,0,0,0,0,0,0,0,0,0,0,0,0,0,0,0,0],"id":21,"left_children":[1,3,5,7,9,11,13,-1,15,17,19,21,23,25,27,29,31,33,35,37,39,41,-1,43,45,47,-1,49,-1,-1,-1,-1,-1,-1,-1,-1,-1,-1,-1,-1,-1,-1,-1,-1,-1,-1,-1,-1,-1,-1,-1],"loss_changes":[6.5488804E3,4.325647E2,4.2020898E2,1.10367676E2,2.8000616E2,2.051127E2,1.2335449E2,0E0,1.09579346E2,2.9769531E1,6.3400375E1,5.2839355E0,5.70569E1,8.784473E1,1.6190015E2,6.933185E1,1.2395569E1,9.975067E0,1.407071E1,2.2636322E1,2.562046E0,2.649231E0,0E0,3.4544067E0,2.1602406E1,4.5855713E-1,0E0,1.4105087E1,0E0,0E0,0E0,0E0,0E0,0E0,0E0,0E0,0E0,0E0,0E0,0E0,0E0,0E0,0E0,0E0,0E0,0E0,0E0,0E0,0E0,0E0,0E0],"parents":[2147483647,0,0,1,1,2,2,3,3,4,4,5,5,6,6,8,8,9,9,10,10,11,11,12,12,13,13,14,14,15,15,16,16,17,17,18,18,19,19,20,20,21,21,23,23,24,24,25,25,27,27],"right_children":[2,4,6,8,10,12,14,-1,16,18,20,22,24,26,28,30,32,34,36,38,40,42,-1,44,46,48,-1,50,-1,-1,-1,-1,-1,-1,-1,-1,-1,-1,-1,-1,-1,-1,-1,-1,-1,-1,-1,-1,-1,-1,-1],"split_conditions":[7.068018E0,5.300603E0,8.523372E0,1.6546341E0,6E0,5.5E0,1.2E1,-7.771355E-2,4.1117897E0,9E0,5E0,7.674672E0,8.333333E0,3.4858513E0,1.0512294E1,2.5337389E0,2E0,8E0,7E0,5.0439024E0,2.081666E0,8.4E0,4.6783075E-2,6.0827627E0,4.052533E0,1.4E1,1.3631159E-1,1.2E1,1.121631E-1,-5.167429E-2,-2.6795225E-2,-7.19884E-2,-3.792942E-2,1.3770639E-2,5.6539014E-2,-4.1579367E-3,2.9328324E-2,-2.4750233E-2,-5.7286818E-2,1.7254407E-2,-2.0291067E-3,9.569302E-2,1.2574429E-2,3.970769E-2,6.079272E-3,1.7446076E-2,-2.0888317E-2,7.861325E-2,2.4639446E-2,4.7321577E-2,7.858565E-3],"split_indices":[25,25,25,25,0,0,0,0,30,1,9,29,7,26,25,25,9,10,11,26,8,13,0,8,26,2,0,1,0,0,0,0,0,0,0,0,0,0,0,0,0,0,0,0,0,0,0,0,0,0,0],"split_type":[0,0,0,0,0,0,0,0,0,0,0,0,0,0,0,0,0,0,0,0,0,0,0,0,0,0,0,0,0,0,0,0,0,0,0,0,0,0,0,0,0,0,0,0,0,0,0,0,0,0,0],"sum_hessian":[1.508E3,1.004E3,5.04E2,7.96E2,2.08E2,1.72E2,3.32E2,1.62E2,6.34E2,8.5E1,1.23E2,7.1E1,1.01E2,2.02E2,1.3E2,4.43E2,1.91E2,4.7E1,3.8E1,1.02E2,2.1E1,5.1E1,2E1,5.5E1,4.6E1,5E1,1.52E2,6.8E1,6.2E1,2.15E2,2.28E2,1.61E2,3E1,1E1,3.7E1,2.1E1,1.7E1,4.8E1,5.4E1,1.3E1,8E0,4.9E1,2E0,5E1,5E0,1.7E1,2.9E1,4.4E1,6E0,5.6E1,1.2E1],"tree_param":{"num_deleted":"0","num_feature":"31","num_nodes":"51","size_leaf_vector":"1"}},{"base_weights":[3.600135E-2,-1.5324928E0,2.6896303E0,-2.2812943E0,-1.1413872E0,1.4550854E0,3.5216796E0,-7.785485E-2,-1.862117E0,-8.744801E-1,-2.1606374E0,2.167825E0,-1.5658773E-2,3.0244694E0,1.3601783E-1,-6.959793E-1,-2.0080204E0,-1.2263858E0,1.09410346E-1,1.7153991E-2,-2.2261798E0,2.592237E0,9.1634756E-1,7.785107E-1,-6.017783E-1,2.316167E0,1.2648624E-1,-2.1466577E-2,-1.1311102E-3,-2.8115181E-2,-6.2774874E-2,-3.137447E-2,-6.0104925E-2,1.8520998E-2,-1.7971154E-2,1.9950641E-2,-6.826547E-2,9.140046E-2,5.4337353E-2,3.1104572E-2,1.195312E-3,3.4801004E-4,3.574511E-2,-3.3201396E-2,8.771758E-3,8.430035E-2,4.5851436E-2],"categories":[],"categories_nodes":[],"categories_segments":[],"categories_sizes":[],"default_left":[0,0,0,0,0,0,0,0,0,0,0,0,0,0,0,0,0,0,0,0,0,0,0,0,0,0,0,0,0,0,0,0,0,0,0,0,0,0,0,0,0,0,0,0,0,0,0],"id":22,"left_children":[1,3,5,7,9,11,13,-1,15,17,19,21,23,25,-1,27,29,31,33,-1,35,37,39,41,43,45,-1,-1,-1,-1,-1,-1,-1,-1,-1,-1,-1,-1,-1,-1,-1,-1,-1,-1,-1,-1,-1],"loss_changes":[6.330507E3,2.6695557E2,5.5474756E2,1.833313E1,1.6411755E2,2.4755847E2,9.9538574E1,0E0,1.9554688E1,1.786366E2,2.9467346E1,7.2574646E1,4.051167E1,1.5291528E2,0E0,1.8722057E-1,2.4974976E0,4.2705994E1,5.2229675E1,0E0,2.568158E1,1.35789795E1,4.861946E0,1.1649847E1,2.4192863E1,4.116217E1,0E0,0E0,0E0,0E0,0E0,0E0,0E0,0E0,0E0,0E0,0E0,0E0,0E0,0E0,0E0,0E0,0E0,0E0,0E0,0E0,0E0],"parents":[2147483647,0,0,1,1,2,2,3,3,4,4,5,5,6,6,8,8,9,9,10,10,11,11,12,12,13,13,15,15,16,16,17,17,18,18,20,20,21,21,22,22,23,23,24,24,25,25],"right_children":[2,4,6,8,10,12,14,-1,16,18,20,22,24,26,-1,28,30,32,34,-1,36,38,40,42,44,46,-1,-1,-1,-1,-1,-1,-1,-1,-1,-1,-1,-1,-1,-1,-1,-1,-1,-1,-1,-1,-1],"split_conditions":[6.5693445E0,2.2638893E0,8.570427E0,1.5863445E0,5.1841235E0,1E1,5.2520227E0,-7.785485E-2,1.5E0,4.5607715E0,3.357143E0,5E0,5.5E0,1.104614E1,1.3601783E-1,1.8027756E0,5E-1,3.7293682E0,6E0,1.7153991E-2,3.1836734E0,7.4E0,4.052533E0,7E0,5E0,1.2E1,1.2648624E-1,-2.1466577E-2,-1.1311102E-3,-2.8115181E-2,-6.2774874E-2,-3.137447E-2,-6.0104925E-2,1.8520998E-2,-1.7971154E-2,1.9950641E-2,-6.826547E-2,9.140046E-2,5.4337353E-2,3.1104572E-2,1.195312E-3,3.4801004E-4,3.574511E-2,-3.3201396E-2,8.771758E-3,8.430035E-2,4.5851436E-2],"split_indices":[25,25,25,25,26,0,26,0,7,25,7,9,1,25,0,8,0,26,0,0,19,13,26,11,9,0,0,0,0,0,0,0,0,0,0,0,0,0,0,0,0,0,0,0,0,0,0],"split_type":[0,0,0,0,0,0,0,0,0,0,0,0,0,0,0,0,0,0,0,0,0,0,0,0,0,0,0,0,0,0,0,0,0,0,0,0,0,0,0,0,0,0,0,0,0,0,0],"sum_hessian":[1.511E3,9.51E2,5.6E2,3.18E2,6.33E2,2.31E2,3.29E2,1.67E2,1.51E2,5.09E2,1.24E2,1.54E2,7.7E1,2.34E2,9.5E1,2E1,1.31E2,3.74E2,1.35E2,2E0,1.22E2,1.11E2,4.3E1,3.2E1,4.5E1,1.56E2,7.8E1,1.9E1,1E0,1.4E1,1.17E2,3.13E2,6.1E1,7.9E1,5.6E1,1E0,1.21E2,6.1E1,5E1,3.7E1,6E0,1.3E1,1.9E1,2.8E1,1.7E1,8.8E1,6.8E1],"tree_param":{"num_deleted":"0","num_feature":"31","num_nodes":"47","size_leaf_vector":"1"}},{"base_weights":[4.479678E-2,-1.39095E0,2.781604E0,-1.6758366E0,-3.9072033E-2,1.5221567E0,3.4295826E0,-2.2673125E0,-1.3676653E0,1.2099746E0,-9.563388E-1,2.6200144E0,5.4001963E-1,2.7503726E0,4.0589833E0,-5.683533E-2,-2.5736923E0,-1.0885446E0,-2.1875832E0,1.8515874E0,4.724308E-1,-2.275816E-1,-1.7497886E0,2.9047549E0,1.196224E0,8.6474925E-1,-1.1573746E0,3.3874164E0,1.1183653E0,2.7943852E0,1.3154508E-1,-9.711611E-3,-7.835957E-2,-3.9211106E-2,2.6941914E-3,-1.8936746E-2,-7.10639E-2,1.0477488E-2,6.0489427E-2,-3.494943E-3,2.6397096E-2,1.3103928E-2,-1.7404016E-2,-8.749095E-3,-5.6382045E-2,2.9185854E-2,9.1332465E-2,3.6986005E-2,1.9503975E-3,3.939592E-2,6.343757E-3,-6.620693E-3,-3.7921123E-2,4.8038904E-2,1.0997212E-1,4.549115E-2,1.2634471E-2,1.5304949E-2,8.669945E-2],"categories":[],"categories_nodes":[],"categories_segments":[],"categories_sizes":[],"default_left":[0,0,0,0,0,0,0,0,0,0,0,0,0,0,0,0,0,0,0,0,0,0,0,0,0,0,0,0,0,0,0,0,0,0,0,0,0,0,0,0,0,0,0,0,0,0,0,0,0,0,0,0,0,0,0,0,0,0,0],"id":23,"left_children":[1,3,5,7,9,11,13,15,17,19,21,23,25,27,29,-1,31,33,35,37,39,41,43,45,47,49,51,53,55,57,-1,-1,-1,-1,-1,-1,-1,-1,-1,-1,-1,-1,-1,-1,-1,-1,-1,-1,-1,-1,-1,-1,-1,-1,-1,-1,-1,-1,-1],"loss_changes":[5.984117E3,3.8441943E2,4.0153223E2,1.348728E2,2.1086763E2,1.9455786E2,9.0384766E1,7.0307617E0,1.1510864E2,3.253724E1,5.930153E1,1.7897034E1,6.2879585E1,1.681969E2,7.551758E0,0E0,7.575989E0,1.0975012E2,3.088031E1,6.3780365E0,1.0831344E1,1.5554935E1,6.709259E0,3.8078613E0,5.526085E-1,2.5271553E1,5.03479E-1,3.3784058E1,1.29017105E1,3.1095886E0,0E0,0E0,0E0,0E0,0E0,0E0,0E0,0E0,0E0,0E0,0E0,0E0,0E0,0E0,0E0,0E0,0E0,0E0,0E0,0E0,0E0,0E0,0E0,0E0,0E0,0E0,0E0,0E0,0E0],"parents":[2147483647,0,0,1,1,2,2,3,3,4,4,5,5,6,6,7,7,8,8,9,9,10,10,11,11,12,12,13,13,14,14,16,16,17,17,18,18,19,19,20,20,21,21,22,22,23,23,24,24,25,25,26,26,27,27,28,28,29,29],"right_children":[2,4,6,8,10,12,14,16,18,20,22,24,26,28,30,-1,32,34,36,38,40,42,44,46,48,50,52,54,56,58,-1,-1,-1,-1,-1,-1,-1,-1,-1,-1,-1,-1,-1,-1,-1,-1,-1,-1,-1,-1,-1,-1,-1,-1,-1,-1,-1,-1,-1],"split_conditions":[7.068018E0,5.544143E0,8.523372E0,2.1376572E0,7E0,7E0,1.0078159E1,1.5170974E0,5E0,7E0,5.196152E0,8.4E0,5.610582E0,1.2E1,3.4350226E0,-5.683533E-2,1.1428572E0,3.8549404E0,3.0371673E0,8E0,7E0,2.9229174E0,2E0,1E1,1.02E1,8.333333E0,7E0,2.9645102E0,8E0,5E-1,1.3154508E-1,-9.711611E-3,-7.835957E-2,-3.9211106E-2,2.6941914E-3,-1.8936746E-2,-7.10639E-2,1.0477488E-2,6.0489427E-2,-3.494943E-3,2.6397096E-2,1.3103928E-2,-1.7404016E-2,-8.749095E-3,-5.6382045E-2,2.9185854E-2,9.1332465E-2,3.6986005E-2,1.9503975E-3,3.939592E-2,6.343757E-3,-6.620693E-3,-3.7921123E-2,4.8038904E-2,1.0997212E-1,4.549115E-2,1.2634471E-2,1.5304949E-2,8.669945E-2],"split_indices":[25,25,25,25,0,0,25,30,0,1,8,13,26,0,26,0,19,25,26,10,11,26,1,10,13,7,1,26,1,4,0,0,0,0,0,0,0,0,0,0,0,0,0,0,0,0,0,0,0,0,0,0,0,0,0,0,0,0,0],"split_type":[0,0,0,0,0,0,0,0,0,0,0,0,0,0,0,0,0,0,0,0,0,0,0,0,0,0,0,0,0,0,0,0,0,0,0,0,0,0,0,0,0,0,0,0,0,0,0,0,0,0,0,0,0,0,0,0,0,0,0],"sum_hessian":[1.513E3,9.94E2,5.19E2,8.2E2,1.74E2,1.82E2,3.37E2,2.7E2,5.5E2,7.3E1,1.01E2,8.2E1,1E2,1.75E2,1.62E2,1.38E2,1.32E2,4.19E2,1.31E2,3.5E1,3.8E1,5.6E1,4.5E1,6.4E1,1.8E1,8.6E1,1.4E1,1.22E2,5.3E1,4.3E1,1.19E2,3E0,1.29E2,3.53E2,6.6E1,1.6E1,1.15E2,5E0,3E1,1.7E1,2.1E1,1.9E1,3.7E1,5E0,4E1,7E0,5.7E1,1.7E1,1E0,4.8E1,3.8E1,3E0,1.1E1,2.1E1,1.01E2,3E1,2.3E1,3E0,4E1],"tree_param":{"num_deleted":"0","num_feature":"31","num_nodes":"59","size_leaf_vector":"1"}},{"base_weights":[3.181348E-2,-1.4241829E0,2.4891708E0,-2.0809362E0,-1.0473852E0,1.0775315E0,3.1530614E0,-2.408564E0,-1.707482E0,-7.604572E-1,-1.7881861E0,2.1577294E0,1.0132706E-1,2.7296023E0,4.487815E0,-4.906646E-3,-7.251028E-2,-7.8494436E-1,-1.8690562E0,-1.1133834E0,-1.278638E-2,-6.444036E-1,-2.120446E0,2.382204E0,8.6366755E-1,9.2566055E-1,-6.0584766E-1,2.0967119E0,1.1764359E-1,1.3767454E-1,3.2814432E-2,-2.5219431E-2,-2.146225E-3,-2.8045202E-2,-5.913635E-2,-2.9232534E-2,-6.972219E-2,1.7350994E-2,-2.5569987E-2,-4.727343E-2,1.2475642E-2,-1.6377086E-2,-6.6922516E-2,1.3190387E-2,7.302148E-2,-1.9961547E-3,2.7804373E-2,3.2703273E-3,3.9895263E-2,-3.3084426E-2,6.2695675E-4,7.891854E-2,3.927846E-2],"categories":[],"categories_nodes":[],"categories_segments":[],"categories_sizes":[],"default_left":[0,0,0,0,0,0,0,0,0,0,0,0,0,0,0,0,0,0,0,0,0,0,0,0,0,0,0,0,0,0,0,0,0,0,0,0,0,0,0,0,0,0,0,0,0,0,0,0,0,0,0,0,0],"id":24,"left_children":[1,3,5,7,9,11,13,15,17,19,21,23,25,27,29,-1,-1,31,33,35,37,39,41,43,45,47,49,51,-1,-1,-1,-1,-1,-1,-1,-1,-1,-1,-1,-1,-1,-1,-1,-1,-1,-1,-1,-1,-1,-1,-1,-1,-1],"loss_changes":[5.423937E3,2.2468726E2,5.115786E2,2.1282104E1,1.23923035E2,1.9715166E2,1.5409644E2,1.246582E0,1.904779E1,1.1919925E2,5.701349E1,1.55659485E1,6.343062E1,1.866914E2,3.7922363E0,0E0,0E0,1.0901604E0,4.8151855E0,4.032788E1,7.690986E1,4.7714012E1,1.6142029E1,2.000885E0,1.5418367E0,1.57788925E1,1.8492077E1,7.0224915E1,0E0,0E0,0E0,0E0,0E0,0E0,0E0,0E0,0E0,0E0,0E0,0E0,0E0,0E0,0E0,0E0,0E0,0E0,0E0,0E0,0E0,0E0,0E0,0E0,0E0],"parents":[2147483647,0,0,1,1,2,2,3,3,4,4,5,5,6,6,7,7,8,8,9,9,10,10,11,11,12,12,13,13,14,14,17,17,18,18,19,19,20,20,21,21,22,22,23,23,24,24,25,25,26,26,27,27],"right_children":[2,4,6,8,10,12,14,16,18,20,22,24,26,28,30,-1,-1,32,34,36,38,40,42,44,46,48,50,52,-1,-1,-1,-1,-1,-1,-1,-1,-1,-1,-1,-1,-1,-1,-1,-1,-1,-1,-1,-1,-1,-1,-1,-1,-1],"split_conditions":[6.5693445E0,2.316959E0,8.306155E0,1.6237774E0,4.7014275E0,7E0,5.517385E0,7.1428573E-1,5E-1,4.271807E0,2E0,8.6E0,7E0,1.0865946E1,1.3E1,-4.906646E-3,-7.251028E-2,2.28906E0,1.7631679E0,3.5118847E0,7E0,3.7680798E0,5E-1,2.081666E0,5.5E0,7E0,5E0,1.2E1,1.1764359E-1,1.3767454E-1,3.2814432E-2,-2.5219431E-2,-2.146225E-3,-2.8045202E-2,-5.913635E-2,-2.9232534E-2,-6.972219E-2,1.7350994E-2,-2.5569987E-2,-4.727343E-2,1.2475642E-2,-1.6377086E-2,-6.6922516E-2,1.3190387E-2,7.302148E-2,-1.9961547E-3,2.7804373E-2,3.2703273E-3,3.9895263E-2,-3.3084426E-2,6.2695675E-4,7.891854E-2,3.927846E-2],"split_indices":[25,25,25,25,30,0,26,19,0,25,0,13,1,25,0,0,0,8,29,8,0,25,1,8,11,11,9,0,0,0,0,0,0,0,0,0,0,0,0,0,0,0,0,0,0,0,0,0,0,0,0,0,0],"split_type":[0,0,0,0,0,0,0,0,0,0,0,0,0,0,0,0,0,0,0,0,0,0,0,0,0,0,0,0,0,0,0,0,0,0,0,0,0,0,0,0,0,0,0,0,0,0,0,0,0,0,0,0,0],"sum_hessian":[1.506E3,9.47E2,5.59E2,3.37E2,6.1E2,1.83E2,3.76E2,1.65E2,1.72E2,4.47E2,1.63E2,8.4E1,9.9E1,2.97E2,7.9E1,1E0,1.64E2,3E1,1.42E2,3.02E2,1.45E2,4E1,1.23E2,6.8E1,1.6E1,4.5E1,5.4E1,2.03E2,9.4E1,7.5E1,4E0,2.7E1,3E0,1.9E1,1.23E2,2.79E2,2.3E1,8.6E1,5.9E1,2E1,2E1,1E1,1.13E2,3E0,6.5E1,1E0,1.5E1,1.7E1,2.8E1,2.8E1,2.6E1,1.14E2,8.9E1],"tree_param":{"num_deleted":"0","num_feature":"31","num_nodes":"53","size_leaf_vector":"1"}},{"base_weights":[4.931645E-2,-1.2263689E0,2.8045E0,-1.5641553E0,5.714872E-2,2.1417408E0,3.6865678E0,-6.468157E-2,-1.3092784E0,1.1899757E0,-7.337512E-1,2.9549437E0,1.1649183E0,2.3743837E0,1.1961162E-1,-7.2614187E-1,-1.5823402E0,1.7307018E0,3.4740525E-1,3.711041E-1,-1.1857102E0,2.1079707E0,3.7849286E0,1.4754872E0,6.279014E-2,7.582124E-2,1.49619365E-2,-2.9834574E-2,1.624928E-2,-3.7385184E-2,-6.824253E-2,2.2921318E-2,6.604642E-2,-5.593708E-3,2.8532518E-2,-1.3550861E-2,2.2873836E-2,-2.2745332E-2,-5.5042263E-2,6.516009E-2,1.5675522E-2,8.685393E-3,1.1441314E-1,1.899167E-2,5.4934815E-2,-1.0492672E-2,1.5718533E-2],"categories":[],"categories_nodes":[],"categories_segments":[],"categories_sizes":[],"default_left":[0,0,0,0,0,0,0,0,0,0,0,0,0,0,0,0,0,0,0,0,0,0,0,0,0,0,0,0,0,0,0,0,0,0,0,0,0,0,0,0,0,0,0,0,0,0,0],"id":25,"left_children":[1,3,5,7,9,11,13,-1,15,17,19,21,23,25,-1,27,29,31,33,35,37,39,41,43,45,-1,-1,-1,-1,-1,-1,-1,-1,-1,-1,-1,-1,-1,-1,-1,-1,-1,-1,-1,-1,-1,-1],"loss_changes":[5.408819E3,4.565465E2,2.4522119E2,1.1155298E2,2.0505916E2,2.1315161E2,3.2313232E1,0E0,8.899817E1,3.98201E1,6.961227E1,6.906836E1,4.745694E1,8.045532E0,0E0,7.039356E1,7.916547E1,1.7077805E1,1.4744772E1,1.5568365E1,1.996048E1,3.2592468E0,1.7382812E0,2.6863556E1,7.7652774E0,0E0,0E0,0E0,0E0,0E0,0E0,0E0,0E0,0E0,0E0,0E0,0E0,0E0,0E0,0E0,0E0,0E0,0E0,0E0,0E0,0E0,0E0],"parents":[2147483647,0,0,1,1,2,2,3,3,4,4,5,5,6,6,8,8,9,9,10,10,11,11,12,12,13,13,15,15,16,16,17,17,18,18,19,19,20,20,21,21,22,22,23,23,24,24],"right_children":[2,4,6,8,10,12,14,-1,16,18,20,22,24,26,-1,28,30,32,34,36,38,40,42,44,46,-1,-1,-1,-1,-1,-1,-1,-1,-1,-1,-1,-1,-1,-1,-1,-1,-1,-1,-1,-1,-1,-1],"split_conditions":[7.346953E0,5.485596E0,9.758358E0,1.9783423E0,7E0,9E0,3.1737692E0,-6.468157E-2,2.0138888E0,9E0,3.535468E0,5.1741257E0,1.1E1,3.055614E0,1.1961162E-1,3.8549404E0,3.3309417E0,9E0,7E0,6.1697087E0,6.212471E0,1E1,1.1E1,9E0,7E0,7.582124E-2,1.49619365E-2,-2.9834574E-2,1.624928E-2,-3.7385184E-2,-6.824253E-2,2.2921318E-2,6.604642E-2,-5.593708E-3,2.8532518E-2,-1.3550861E-2,2.2873836E-2,-2.2745332E-2,-5.5042263E-2,6.516009E-2,1.5675522E-2,8.685393E-3,1.1441314E-1,1.899167E-2,5.4934815E-2,-1.0492672E-2,1.5718533E-2],"split_indices":[25,25,25,25,0,0,26,0,0,1,26,26,1,26,0,25,26,10,11,25,26,13,10,11,9,0,0,0,0,0,0,0,0,0,0,0,0,0,0,0,0,0,0,0,0,0,0],"split_type":[0,0,0,0,0,0,0,0,0,0,0,0,0,0,0,0,0,0,0,0,0,0,0,0,0,0,0,0,0,0,0,0,0,0,0,0,0,0,0,0,0,0,0,0,0,0,0],"sum_hessian":[1.529E3,1.047E3,4.82E2,8.28E2,2.19E2,2.85E2,1.97E2,2.38E2,5.9E2,8.9E1,1.3E2,1.5E2,1.35E2,4.5E1,1.52E2,1.94E2,3.96E2,5.1E1,3.8E1,3.8E1,9.2E1,8.3E1,6.7E1,1.04E2,3.1E1,4E1,5E0,1.61E2,3.3E1,2.76E2,1.2E2,2.1E1,3E1,2.2E1,1.6E1,1.2E1,2.6E1,6.2E1,3E1,7.8E1,5E0,1E0,6.6E1,3.5E1,6.9E1,1.7E1,1.4E1],"tree_param":{"num_deleted":"0","num_feature":"31","num_nodes":"47","size_leaf_vector":"1"}},{"base_weights":[5.0733212E-2,-1.1962234E0,2.700315E0,-1.5386332E0,-5.466853E-2,1.5699792E0,3.1519723E0,-2.013872E0,-1.1945482E0,1.083645E0,-8.041331E-1,2.1772833E0,3.987794E-1,2.765645E0,1.2747511E-1,-6.840667E-2,-1.672212E0,-8.887716E-1,-1.9950258E0,1.6241246E0,3.4020564E-1,-1.19470045E-1,-1.557528E0,2.350347E0,4.4775277E-1,8.489604E-1,-1.478769E-1,2.1764288E0,1.15992114E-1,-1.6794132E-2,-5.5084277E-2,-2.777903E-3,-3.2333244E-2,-1.8181678E-2,-6.420881E-2,2.4900854E-2,6.391947E-2,-1.3200491E-2,2.2845635E-2,-2.161765E-2,9.003223E-3,-1.9391155E-3,-4.997187E-2,4.982397E-2,8.76435E-2,1.8459668E-2,-2.5034111E-3,2.1174725E-3,3.560181E-2,4.407314E-3,-1.7696163E-2,8.0531046E-2,4.0568605E-2],"categories":[],"categories_nodes":[],"categories_segments":[],"categories_sizes":[],"default_left":[0,0,0,0,0,0,0,0,0,0,0,0,0,0,0,0,0,0,0,0,0,0,0,0,0,0,0,0,0,0,0,0,0,0,0,0,0,0,0,0,0,0,0,0,0,0,0,0,0,0,0,0,0],"id":26,"left_children":[1,3,5,7,9,11,13,15,17,19,21,23,25,27,-1,-1,29,31,33,35,37,39,41,43,45,47,49,51,-1,-1,-1,-1,-1,-1,-1,-1,-1,-1,-1,-1,-1,-1,-1,-1,-1,-1,-1,-1,-1,-1,-1,-1,-1],"loss_changes":[5.028187E3,4.041399E2,2.2388232E2,1.1813562E2,2.1251964E2,1.0163861E2,8.6631836E1,1.0692383E1,1.0715405E2,3.7016876E1,7.644286E1,2.3772064E1,1.465508E1,1.317461E2,0E0,0E0,2.4402496E1,5.246982E1,1.9139496E1,1.3682343E1,1.745395E1,2.2267387E1,1.093045E1,1.0001129E1,1.591928E0,7.994314E0,4.34213E0,5.9712036E1,0E0,0E0,0E0,0E0,0E0,0E0,0E0,0E0,0E0,0E0,0E0,0E0,0E0,0E0,0E0,0E0,0E0,0E0,0E0,0E0,0E0,0E0,0E0,0E0,0E0],"parents":[2147483647,0,0,1,1,2,2,3,3,4,4,5,5,6,6,7,7,8,8,9,9,10,10,11,11,12,12,13,13,16,16,17,17,18,18,19,19,20,20,21,21,22,22,23,23,24,24,25,25,26,26,27,27],"right_children":[2,4,6,8,10,12,14,16,18,20,22,24,26,28,-1,-1,30,32,34,36,38,40,42,44,46,48,50,52,-1,-1,-1,-1,-1,-1,-1,-1,-1,-1,-1,-1,-1,-1,-1,-1,-1,-1,-1,-1,-1,-1,-1,-1,-1],"split_conditions":[7.346953E0,5.300603E0,8.570427E0,2.316959E0,6E0,8.333333E0,5.517385E0,1.6237774E0,4.1792784E0,9E0,4.467567E0,1.1E1,8.248514E0,1.1080563E1,1.2747511E-1,-6.840667E-2,1.5E0,2E0,5E-1,9E0,5.5E0,6.250556E0,5.2E0,1.1E1,6.0827627E0,8.072319E0,1.1E1,1.2E1,1.15992114E-1,-1.6794132E-2,-5.5084277E-2,-2.777903E-3,-3.2333244E-2,-1.8181678E-2,-6.420881E-2,2.4900854E-2,6.391947E-2,-1.3200491E-2,2.2845635E-2,-2.161765E-2,9.003223E-3,-1.9391155E-3,-4.997187E-2,4.982397E-2,8.76435E-2,1.8459668E-2,-2.5034111E-3,2.1174725E-3,3.560181E-2,4.407314E-3,-1.7696163E-2,8.0531046E-2,4.0568605E-2],"split_indices":[25,25,25,25,0,7,26,25,26,1,26,0,29,25,0,0,7,0,0,10,11,25,13,10,8,25,11,0,0,0,0,0,0,0,0,0,0,0,0,0,0,0,0,0,0,0,0,0,0,0,0,0,0],"split_type":[0,0,0,0,0,0,0,0,0,0,0,0,0,0,0,0,0,0,0,0,0,0,0,0,0,0,0,0,0,0,0,0,0,0,0,0,0,0,0,0,0,0,0,0,0,0,0,0,0,0,0,0,0],"sum_hessian":[1.512E3,1.03E3,4.82E2,7.91E2,2.39E2,1.44E2,3.38E2,3.22E2,4.69E2,9.4E1,1.45E2,9.2E1,5.2E1,2.63E2,7.5E1,1.65E2,1.57E2,3.47E2,1.22E2,5.1E1,4.3E1,7.9E1,6.6E1,8.2E1,1E1,2.7E1,2.5E1,1.81E2,8.2E1,2.3E1,1.34E2,6.8E1,2.79E2,1.4E1,1.08E2,2.5E1,2.6E1,1.5E1,2.8E1,3.1E1,4.8E1,5E0,6.1E1,4.6E1,3.6E1,7E0,3E0,1E1,1.7E1,1.7E1,8E0,1.05E2,7.6E1],"tree_param":{"num_deleted":"0","num_feature":"31","num_nodes":"53","size_leaf_vector":"1"}},{"base_weights":[3.7890196E-2,-1.1446205E0,2.6375525E0,-1.4404107E0,2.1593584E-1,2.0403812E0,3.4970925E0,-2.2272036E0,-1.2385262E0,1.330927E0,-8.337616E-1,2.5610888E0,7.796465E-1,2.7906928E0,1.1895444E-1,-6.7007E-2,-5.6956373E-3,-7.1011925E-1,-1.5240064E0,1.89363E0,5.7097095E-1,-3.370398E-1,-1.7506725E0,1.6464576E0,3.2571743E0,1.2362398E0,9.435692E-2,2.8917618E0,5.059389E-1,-3.0911675E-2,1.6794503E-2,-3.6043383E-2,-6.287811E-2,6.0834788E-2,9.080177E-3,2.5858205E-2,-4.602169E-3,4.1890857E-3,-1.896017E-2,-5.456752E-2,-5.3539886E-3,5.6382947E-2,2.8359039E-2,9.886329E-2,9.713683E-3,7.585024E-3,4.6955664E-2,-1.0208612E-2,1.5280296E-2,1.5124905E-2,8.839119E-2,2.6838588E-2,-8.989577E-3],"categories":[],"categories_nodes":[],"categories_segments":[],"categories_sizes":[],"default_left":[0,0,0,0,0,0,0,0,0,0,0,0,0,0,0,0,0,0,0,0,0,0,0,0,0,0,0,0,0,0,0,0,0,0,0,0,0,0,0,0,0,0,0,0,0,0,0,0,0,0,0,0,0],"id":27,"left_children":[1,3,5,7,9,11,13,15,17,19,21,23,25,27,-1,-1,-1,29,31,33,35,37,39,41,43,45,47,49,51,-1,-1,-1,-1,-1,-1,-1,-1,-1,-1,-1,-1,-1,-1,-1,-1,-1,-1,-1,-1,-1,-1,-1,-1],"loss_changes":[4.749253E3,4.2894568E2,2.1224316E2,1.248761E2,2.3260664E2,1.8498914E2,7.8237305E0,1.09436035E-1,1.01088745E2,3.5646408E1,4.3961082E1,1.0561157E2,2.8829231E1,1.4160095E1,0E0,0E0,0E0,1.0741179E2,7.116406E1,8.246689E0,1.0778155E1,1.0705287E1,2.132248E0,7.451996E0,7.3499756E0,1.6136795E1,8.622581E0,4.047119E0,4.471554E0,0E0,0E0,0E0,0E0,0E0,0E0,0E0,0E0,0E0,0E0,0E0,0E0,0E0,0E0,0E0,0E0,0E0,0E0,0E0,0E0,0E0,0E0,0E0,0E0],"parents":[2147483647,0,0,1,1,2,2,3,3,4,4,5,5,6,6,7,7,8,8,9,9,10,10,11,11,12,12,13,13,17,17,18,18,19,19,20,20,21,21,22,22,23,23,24,24,25,25,26,26,27,27,28,28],"right_children":[2,4,6,8,10,12,14,16,18,20,22,24,26,28,-1,-1,-1,30,32,34,36,38,40,42,44,46,48,50,52,-1,-1,-1,-1,-1,-1,-1,-1,-1,-1,-1,-1,-1,-1,-1,-1,-1,-1,-1,-1,-1,-1,-1,-1],"split_conditions":[7.346953E0,5.795422E0,9.758358E0,1.6546341E0,8E0,1.1E1,4.619305E0,1.5E1,2.0138888E0,2.0138888E0,6.0004067E0,4.2979994E0,7E0,4.562011E0,1.1895444E-1,-6.7007E-2,-5.6956373E-3,3.8549404E0,3.3309417E0,7.18545E0,1E1,5.5E0,2.0138888E0,1.1E1,1.5E1,8E0,7E0,9.833353E0,1.5E1,-3.0911675E-2,1.6794503E-2,-3.6043383E-2,-6.287811E-2,6.0834788E-2,9.080177E-3,2.5858205E-2,-4.602169E-3,4.1890857E-3,-1.896017E-2,-5.456752E-2,-5.3539886E-3,5.6382947E-2,2.8359039E-2,9.886329E-2,9.713683E-3,7.585024E-3,4.6955664E-2,-1.0208612E-2,1.5280296E-2,1.5124905E-2,8.839119E-2,2.6838588E-2,-8.989577E-3],"split_indices":[25,25,25,25,0,0,30,5,0,9,26,26,1,30,0,0,0,25,26,29,1,1,9,1,1,11,9,25,0,0,0,0,0,0,0,0,0,0,0,0,0,0,0,0,0,0,0,0,0,0,0,0,0],"split_type":[0,0,0,0,0,0,0,0,0,0,0,0,0,0,0,0,0,0,0,0,0,0,0,0,0,0,0,0,0,0,0,0,0,0,0,0,0,0,0,0,0,0,0,0,0,0,0,0,0,0,0,0,0],"sum_hessian":[1.535E3,1.057E3,4.78E2,8.68E2,1.89E2,2.92E2,1.86E2,1.67E2,7.01E2,9.1E1,9.8E1,2.03E2,8.9E1,8.8E1,9.8E1,1.66E2,1E0,2.52E2,4.49E2,4.8E1,4.3E1,6.8E1,3E1,9.5E1,1.08E2,5.1E1,3.8E1,8.3E1,5E0,2.02E2,5E1,2.97E2,1.52E2,4.3E1,5E0,3E1,1.3E1,2.7E1,4.1E1,2.8E1,2E0,6.5E1,3E1,1.06E2,2E0,1.5E1,3.6E1,1.9E1,1.9E1,3E0,8E1,3E0,2E0],"tree_param":{"num_deleted":"0","num_feature":"31","num_nodes":"53","size_leaf_vector":"1"}},{"base_weights":[5.02058E-2,-1.1077441E0,2.5839162E0,-1.4377348E0,-5.3519495E-3,1.7189361E0,3.20472E0,-1.9152297E0,-1.1061141E0,6.543462E-1,-9.4936347E-1,2.6632268E0,9.987141E-1,2.782249E0,1.2336084E-1,-1.575911E0,-2.2361946E0,-8.11891E-1,-1.7867979E0,1.1163552E0,4.2309903E-2,4.2424083E-1,-1.1738361E0,1.5221432E0,3.130276E0,1.7130477E0,4.9611837E-1,2.1292107E0,1.0861703E-1,-6.070703E-2,-4.0447775E-2,-6.7304924E-2,-5.6671593E-3,-9.67084E-3,-3.093473E-2,-1.40637355E-2,-6.032298E-2,4.4009678E-2,1.1858877E-2,-1.927323E-2,1.31888995E-2,-5.5557275E-3,2.1895949E-2,-2.1509288E-2,-5.2405655E-2,8.817648E-3,4.774091E-2,9.562434E-2,-3.6519527E-4,1.1720077E-2,5.449713E-2,2.4083536E-2,-3.8395775E-3,7.143882E-2,2.163328E-2],"categories":[],"categories_nodes":[],"categories_segments":[],"categories_sizes":[],"default_left":[0,0,0,0,0,0,0,0,0,0,0,0,0,0,0,0,0,0,0,0,0,0,0,0,0,0,0,0,0,0,0,0,0,0,0,0,0,0,0,0,0,0,0,0,0,0,0,0,0,0,0,0,0,0,0],"id":28,"left_children":[1,3,5,7,9,11,13,15,17,19,21,23,25,27,-1,29,31,33,35,37,39,41,43,45,47,49,51,53,-1,-1,-1,-1,-1,-1,-1,-1,-1,-1,-1,-1,-1,-1,-1,-1,-1,-1,-1,-1,-1,-1,-1,-1,-1,-1,-1],"loss_changes":[4.4151763E3,3.7574548E2,2.2591235E2,1.1529358E2,1.5443741E2,1.2816156E2,4.5907227E1,1.7121948E1,8.907782E1,4.1047703E1,3.394027E1,2.2542236E1,4.0987274E1,7.039844E1,0E0,3.887085E0,1.5356445E-1,3.536943E1,3.6908813E1,1.8085243E1,1.9912622E1,4.0284476E0,1.7037003E1,6.3695526E-1,1.0440063E1,3.296463E0,1.6016455E1,3.5429077E1,0E0,0E0,0E0,0E0,0E0,0E0,0E0,0E0,0E0,0E0,0E0,0E0,0E0,0E0,0E0,0E0,0E0,0E0,0E0,0E0,0E0,0E0,0E0,0E0,0E0,0E0,0E0],"parents":[2147483647,0,0,1,1,2,2,3,3,4,4,5,5,6,6,7,7,8,8,9,9,10,10,11,11,12,12,13,13,15,15,16,16,17,17,18,18,19,19,20,20,21,21,22,22,23,23,24,24,25,25,26,26,27,27],"right_children":[2,4,6,8,10,12,14,16,18,20,22,24,26,28,-1,30,32,34,36,38,40,42,44,46,48,50,52,54,-1,-1,-1,-1,-1,-1,-1,-1,-1,-1,-1,-1,-1,-1,-1,-1,-1,-1,-1,-1,-1,-1,-1,-1,-1,-1,-1],"split_conditions":[7.346953E0,5.300603E0,9.127746E0,2.316959E0,1.2E1,7.6666665E0,5.2520227E0,1.5165751E0,3.969947E0,7E0,5E0,1.1E1,7.6E0,1.104614E1,1.2336084E-1,1.2746173E0,1.4E1,2.0138888E0,5E-1,9E0,6.0641384E0,5.699831E0,6.212471E0,9E0,1.2E1,7.798716E0,1.3E1,1.4E1,1.0861703E-1,-6.070703E-2,-4.0447775E-2,-6.7304924E-2,-5.6671593E-3,-9.67084E-3,-3.093473E-2,-1.40637355E-2,-6.032298E-2,4.4009678E-2,1.1858877E-2,-1.927323E-2,1.31888995E-2,-5.5557275E-3,2.1895949E-2,-2.1509288E-2,-5.2405655E-2,8.817648E-3,4.774091E-2,9.562434E-2,-3.6519527E-4,1.1720077E-2,5.449713E-2,2.4083536E-2,-3.8395775E-3,7.143882E-2,2.163328E-2],"split_indices":[25,25,25,25,10,7,26,14,26,0,0,10,13,25,0,25,5,0,0,1,25,25,26,10,0,25,0,0,0,0,0,0,0,0,0,0,0,0,0,0,0,0,0,0,0,0,0,0,0,0,0,0,0,0,0],"split_type":[0,0,0,0,0,0,0,0,0,0,0,0,0,0,0,0,0,0,0,0,0,0,0,0,0,0,0,0,0,0,0,0,0,0,0,0,0,0,0,0,0,0,0,0,0,0,0,0,0,0,0,0,0,0,0],"sum_hessian":[1.495E3,1.028E3,4.67E2,7.9E2,2.38E2,2.03E2,2.64E2,3.14E2,4.76E2,1.41E2,9.7E1,8.2E1,1.21E2,1.94E2,7E1,1.67E2,1.47E2,3.4E2,1.36E2,7.8E1,6.3E1,1.3E1,8.4E1,3E1,5.2E1,4.5E1,7.6E1,1.19E2,7.5E1,4.3E1,1.24E2,1.46E2,1E0,1.09E2,2.31E2,2.2E1,1.14E2,4.9E1,2.9E1,2.2E1,4.1E1,5E0,8E0,5.3E1,3.1E1,3E0,2.7E1,5.1E1,1E0,5E0,4E1,5E1,2.6E1,9.8E1,2.1E1],"tree_param":{"num_deleted":"0","num_feature":"31","num_nodes":"55","size_leaf_vector":"1"}},{"base_weights":[-3.7633516E-3,-1.1758395E0,2.2868443E0,-1.4171425E0,-3.3107005E-2,1.1956047E0,2.8200252E0,-1.9200242E0,-1.1585891E0,6.102839E-1,-1.008854E0,1.8058012E0,2.2598758E-2,2.460493E0,1.17908664E-1,-1.584637E0,-2.2077184E0,-9.1003746E-1,-1.8860754E0,5.335849E-2,2.8300598E-1,-5.6843746E-1,-1.6865506E0,2.290111E0,1.1387204E0,4.9402338E-1,-6.0454327E-1,1.9024683E0,3.3530736E0,-5.77792E-2,-3.8692076E-2,-9.127385E-3,-6.759558E-2,-1.2331325E-2,-3.5016153E-2,-6.0269613E-2,-2.4562431E-2,-4.566401E-3,2.350487E-2,2.0294376E-3,-2.3508634E-2,-3.2141185E-3,-5.1800817E-2,7.345568E-2,1.7503312E-2,3.6026653E-2,3.5782289E-3,3.0214308E-2,2.2782565E-3,3.6814162E-3,-2.7898412E-2,7.2821766E-2,3.2444354E-2,1.01615645E-1,-1.2141705E-4],"categories":[],"categories_nodes":[],"categories_segments":[],"categories_sizes":[],"default_left":[0,0,0,0,0,0,0,0,0,0,0,0,0,0,0,0,0,0,0,0,0,0,0,0,0,0,0,0,0,0,0,0,0,0,0,0,0,0,0,0,0,0,0,0,0,0,0,0,0,0,0,0,0,0,0],"id":29,"left_children":[1,3,5,7,9,11,13,15,17,19,21,23,25,27,-1,29,31,33,35,-1,37,39,41,43,45,47,49,51,53,-1,-1,-1,-1,-1,-1,-1,-1,-1,-1,-1,-1,-1,-1,-1,-1,-1,-1,-1,-1,-1,-1,-1,-1,-1,-1],"loss_changes":[4.164094E3,2.8267957E2,2.8860132E2,9.900598E1,1.185912E2,1.2934921E2,9.0960205E1,9.524658E0,9.4845825E1,4.1073322E1,1.7591667E1,2.540686E1,2.1301855E1,1.06073E2,0E0,2.3771057E0,8.515808E0,5.355078E1,1.0273102E1,0E0,2.128946E1,7.5194397E0,7.86911E-1,1.0159851E1,3.086441E0,8.413148E0,7.906806E0,6.530829E1,1.1521362E1,0E0,0E0,0E0,0E0,0E0,0E0,0E0,0E0,0E0,0E0,0E0,0E0,0E0,0E0,0E0,0E0,0E0,0E0,0E0,0E0,0E0,0E0,0E0,0E0,0E0,0E0],"parents":[2147483647,0,0,1,1,2,2,3,3,4,4,5,5,6,6,7,7,8,8,9,9,10,10,11,11,12,12,13,13,15,15,16,16,17,17,18,18,20,20,21,21,22,22,23,23,24,24,25,25,26,26,27,27,28,28],"right_children":[2,4,6,8,10,12,14,16,18,20,22,24,26,28,-1,30,32,34,36,-1,38,40,42,44,46,48,50,52,54,-1,-1,-1,-1,-1,-1,-1,-1,-1,-1,-1,-1,-1,-1,-1,-1,-1,-1,-1,-1,-1,-1,-1,-1,-1,-1],"split_conditions":[7.068018E0,5.544143E0,8.523372E0,2.1376572E0,9E0,8.333333E0,5.493261E0,1.5170974E0,4.214929E0,5.2E0,6.0004067E0,5.5E0,1.3E1,1.0865946E1,1.17908664E-1,1.3020235E0,3.0714285E0,2.0138888E0,2E0,5.335849E-2,6.250556E0,6.8E0,5E-1,1.1E1,6.0827627E0,7.8E0,8E0,1.2E1,1.4E1,-5.77792E-2,-3.8692076E-2,-9.127385E-3,-6.759558E-2,-1.2331325E-2,-3.5016153E-2,-6.0269613E-2,-2.4562431E-2,-4.566401E-3,2.350487E-2,2.0294376E-3,-2.3508634E-2,-3.2141185E-3,-5.1800817E-2,7.345568E-2,1.7503312E-2,3.6026653E-2,3.5782289E-3,3.0214308E-2,2.2782565E-3,3.6814162E-3,-2.7898412E-2,7.2821766E-2,3.2444354E-2,1.01615645E-1,-1.2141705E-4],"split_indices":[25,25,25,25,0,7,26,30,26,13,26,0,0,25,0,25,22,0,9,0,25,13,5,1,8,13,1,0,23,0,0,0,0,0,0,0,0,0,0,0,0,0,0,0,0,0,0,0,0,0,0,0,0,0,0],"split_type":[0,0,0,0,0,0,0,0,0,0,0,0,0,0,0,0,0,0,0,0,0,0,0,0,0,0,0,0,0,0,0,0,0,0,0,0,0,0,0,0,0,0,0,0,0,0,0,0,0,0,0,0,0,0,0],"sum_hessian":[1.541E3,1.021E3,5.2E2,8.42E2,1.79E2,1.76E2,3.44E2,2.75E2,5.67E2,1.09E2,7E1,1.14E2,6.2E1,2.72E2,7.2E1,1.42E2,1.33E2,4.31E2,1.36E2,1.9E1,9E1,4.8E1,2.2E1,5.9E1,5.5E1,3.6E1,2.6E1,1.77E2,9.5E1,5.3E1,8.9E1,4E0,1.29E2,1.51E2,2.8E2,1.18E2,1.8E1,5E1,4E1,1.3E1,3.5E1,1E0,2.1E1,5.2E1,7E0,5.1E1,4E0,1.3E1,2.3E1,9E0,1.7E1,1.02E2,7.5E1,9.4E1,1E0],"tree_param":{"num_deleted":"0","num_feature":"31","num_nodes":"55","size_leaf_vector":"1"}},{"base_weights":[1.7524812E-2,-1.0314867E0,2.3321755E0,-1.3220826E0,3.6230136E-2,2.04294E0,3.9027822E0,-1.763834E0,-9.903473E-1,1.0840132E0,-6.3444483E-1,1.5460197E0,3.0497453E0,-4.243946E-3,1.1917974E-1,-2.047582E0,-1.4456605E0,-6.4698637E-1,-1.5714977E0,1.5249772E0,4.2966872E-1,-8.9691825E-2,-1.3476914E0,1.9765974E0,6.103794E-1,9.358524E-2,6.3888454E-1,-3.4859383E-3,-6.166299E-2,-1.3333027E-2,-4.8171934E-2,-4.650171E-3,-2.671336E-2,-2.7382605E-2,-5.660885E-2,1.2427694E-2,5.205345E-2,-4.0649143E-3,2.9254368E-2,1.5471458E-2,-1.5222428E-2,-5.8231405E-3,-4.6526134E-2,3.7561722E-2,6.756728E-2,3.2551438E-2,-2.07707E-3,2.1376692E-2,-1.20811455E-4],"categories":[],"categories_nodes":[],"categories_segments":[],"categories_sizes":[],"default_left":[0,0,0,0,0,0,0,0,0,0,0,0,0,0,0,0,0,0,0,0,0,0,0,0,0,0,0,0,0,0,0,0,0,0,0,0,0,0,0,0,0,0,0,0,0,0,0,0,0],"id":30,"left_children":[1,3,5,7,9,11,13,15,17,19,21,23,25,-1,-1,27,29,31,33,35,37,39,41,43,45,-1,47,-1,-1,-1,-1,-1,-1,-1,-1,-1,-1,-1,-1,-1,-1,-1,-1,-1,-1,-1,-1,-1,-1],"loss_changes":[3.729442E3,3.2819934E2,1.7773193E2,1.1304431E2,1.6576749E2,1.8405054E2,2.2309082E1,1.6797852E1,9.189487E1,2.3269707E1,5.5345837E1,1.0999298E2,1.223584E1,0E0,0E0,1.4290771E0,2.5600372E1,3.691992E1,2.8170746E1,8.77652E0,1.4225185E1,2.3310022E1,1.3026741E1,2.484497E1,3.1989635E1,0E0,4.879923E-1,0E0,0E0,0E0,0E0,0E0,0E0,0E0,0E0,0E0,0E0,0E0,0E0,0E0,0E0,0E0,0E0,0E0,0E0,0E0,0E0,0E0,0E0],"parents":[2147483647,0,0,1,1,2,2,3,3,4,4,5,5,6,6,7,7,8,8,9,9,10,10,11,11,12,12,15,15,16,16,17,17,18,18,19,19,20,20,21,21,22,22,23,23,24,24,26,26],"right_children":[2,4,6,8,10,12,14,16,18,20,22,24,26,-1,-1,28,30,32,34,36,38,40,42,44,46,-1,48,-1,-1,-1,-1,-1,-1,-1,-1,-1,-1,-1,-1,-1,-1,-1,-1,-1,-1,-1,-1,-1,-1],"split_conditions":[7.346953E0,5.300603E0,5.79875E0,2.316959E0,6E0,1.0107263E1,7.5679517E0,1.5863445E0,4.1117897E0,9E0,4.963024E0,1.2E1,1.1857142E1,-4.243946E-3,1.1917974E-1,7.1428573E-1,1.5E0,2.0138888E0,2.0138888E0,8E0,7E0,5.5E0,3.0714285E0,3.055614E0,8E0,9.358524E-2,1.3E1,-3.4859383E-3,-6.166299E-2,-1.3333027E-2,-4.8171934E-2,-4.650171E-3,-2.671336E-2,-2.7382605E-2,-5.660885E-2,1.2427694E-2,5.205345E-2,-4.0649143E-3,2.9254368E-2,1.5471458E-2,-1.5222428E-2,-5.8231405E-3,-4.6526134E-2,3.7561722E-2,6.756728E-2,3.2551438E-2,-2.07707E-3,2.1376692E-2,-1.20811455E-4],"split_indices":[25,25,28,25,0,25,25,25,30,1,26,0,19,0,0,19,7,0,0,10,11,1,1,26,1,0,0,0,0,0,0,0,0,0,0,0,0,0,0,0,0,0,0,0,0,0,0,0,0],"split_type":[0,0,0,0,0,0,0,0,0,0,0,0,0,0,0,0,0,0,0,0,0,0,0,0,0,0,0,0,0,0,0,0,0,0,0,0,0,0,0,0,0,0,0,0,0,0,0,0,0],"sum_hessian":[1.526E3,1.052E3,4.74E2,8.26E2,2.26E2,4.1E2,6.4E1,3.45E2,4.81E2,8.7E1,1.39E2,2.83E2,1.27E2,1E0,6.3E1,1.68E2,1.77E2,3.09E2,1.72E2,4.8E1,3.9E1,8.2E1,5.7E1,1.9E2,9.3E1,1.22E2,5E0,1E0,1.67E2,2.7E1,1.5E2,1.05E2,2.04E2,6.2E1,1.1E2,1E1,3.8E1,2.1E1,1.8E1,3.3E1,4.9E1,1E1,4.7E1,6E1,1.3E2,5.3E1,4E1,4E0,1E0],"tree_param":{"num_deleted":"0","num_feature":"31","num_nodes":"49","size_leaf_vector":"1"}},{"base_weights":[2.740114E-2,-1.1483657E0,2.029084E0,-1.7316335E0,-8.1855375E-1,1.0281949E0,2.7262595E0,-6.0160246E-2,-1.4375354E0,-5.943397E-1,-1.6477077E0,1.6095461E0,-1.0640756E-1,2.3990965E0,3.8531609E0,-4.857672E-1,-1.6156667E0,-8.026604E-1,4.383203E-1,-6.045288E-1,-1.8553838E0,2.0068316E0,6.256512E-1,6.4717305E-1,-6.128973E-1,1.863661E0,9.632399E-2,1.1645328E-1,9.965883E-3,-4.5939563E-3,-2.0607114E-2,-3.9566047E-2,-6.3640445E-2,-6.5585203E-3,-3.2443166E-2,3.210902E-2,-1.6810272E-2,-3.4626916E-2,3.6892684E-3,-6.1056204E-2,-2.5971467E-2,6.9859065E-2,3.520292E-2,2.9589666E-2,5.542489E-3,-1.2046846E-3,2.8370656E-2,-2.6240187E-2,6.4231874E-3,7.001288E-2,2.9375257E-2],"categories":[],"categories_nodes":[],"categories_segments":[],"categories_sizes":[],"default_left":[0,0,0,0,0,0,0,0,0,0,0,0,0,0,0,0,0,0,0,0,0,0,0,0,0,0,0,0,0,0,0,0,0,0,0,0,0,0,0,0,0,0,0,0,0,0,0,0,0,0,0],"id":31,"left_children":[1,3,5,7,9,11,13,-1,15,17,19,21,23,25,27,29,31,33,35,37,39,41,43,45,47,49,-1,-1,-1,-1,-1,-1,-1,-1,-1,-1,-1,-1,-1,-1,-1,-1,-1,-1,-1,-1,-1,-1,-1,-1,-1],"loss_changes":[3.5936963E3,1.7797156E2,3.8023853E2,1.3196777E1,1.1111008E2,1.5916095E2,7.544409E1,0E0,2.7101593E1,1.09106186E2,2.255545E1,5.587317E1,3.4807808E1,8.6992065E1,2.020874E-1,1.8826513E0,8.824127E0,6.671329E1,5.790744E1,1.23071165E1,1.0054779E1,1.6106812E1,7.5169697E0,7.78148E0,1.2626787E1,6.0923096E1,0E0,0E0,0E0,0E0,0E0,0E0,0E0,0E0,0E0,0E0,0E0,0E0,0E0,0E0,0E0,0E0,0E0,0E0,0E0,0E0,0E0,0E0,0E0,0E0,0E0],"parents":[2147483647,0,0,1,1,2,2,3,3,4,4,5,5,6,6,8,8,9,9,10,10,11,11,12,12,13,13,14,14,15,15,16,16,17,17,18,18,19,19,20,20,21,21,22,22,23,23,24,24,25,25],"right_children":[2,4,6,8,10,12,14,-1,16,18,20,22,24,26,28,30,32,34,36,38,40,42,44,46,48,50,-1,-1,-1,-1,-1,-1,-1,-1,-1,-1,-1,-1,-1,-1,-1,-1,-1,-1,-1,-1,-1,-1,-1,-1,-1],"split_conditions":[6.5693445E0,2.316959E0,8.79696E0,1.5863445E0,5.5075707E0,1E1,5.5450606E0,-6.0160246E-2,5E-1,5.485596E0,5.1841235E0,5E0,5.5E0,1.0865946E1,1.3666667E1,2E0,1.5972911E0,2.0138888E0,6.8E0,4.5607715E0,2E0,7.6E0,8E0,7E0,6E0,9.2E0,9.632399E-2,1.1645328E-1,9.965883E-3,-4.5939563E-3,-2.0607114E-2,-3.9566047E-2,-6.3640445E-2,-6.5585203E-3,-3.2443166E-2,3.210902E-2,-1.6810272E-2,-3.4626916E-2,3.6892684E-3,-6.1056204E-2,-2.5971467E-2,6.9859065E-2,3.520292E-2,2.9589666E-2,5.542489E-3,-1.2046846E-3,2.8370656E-2,-2.6240187E-2,6.4231874E-3,7.001288E-2,2.9375257E-2],"split_indices":[25,25,25,25,8,0,28,0,0,25,26,9,1,25,7,1,26,0,13,25,9,13,23,11,9,13,0,0,0,0,0,0,0,0,0,0,0,0,0,0,0,0,0,0,0,0,0,0,0,0,0],"split_type":[0,0,0,0,0,0,0,0,0,0,0,0,0,0,0,0,0,0,0,0,0,0,0,0,0,0,0,0,0,0,0,0,0,0,0,0,0,0,0,0,0,0,0,0,0,0,0,0,0,0,0],"sum_hessian":[1.517E3,9.57E2,5.6E2,3.38E2,6.19E2,2.35E2,3.25E2,1.6E2,1.78E2,4.94E2,1.25E2,1.54E2,8.1E1,2.64E2,6.1E1,3.1E1,1.47E2,4.12E2,8.2E1,2.4E1,1.01E2,1.06E2,4.8E1,3.2E1,4.9E1,1.69E2,9.5E1,6E1,1E0,1.5E1,1.6E1,1.04E2,4.3E1,1.36E2,2.76E2,5E1,3.2E1,1.2E1,1.2E1,8.1E1,2E1,7E1,3.6E1,2.3E1,2.5E1,1.1E1,2.1E1,3.7E1,1.2E1,1.05E2,6.4E1],"tree_param":{"num_deleted":"0","num_feature":"31","num_nodes":"51","size_leaf_vector":"1"}},{"base_weights":[9.440638E-3,-1.0522217E0,2.181703E0,-1.2821968E0,-9.6208505E-2,1.2127768E0,2.6654031E0,-1.6565111E0,-1.0137522E0,5.5195975E-1,-1.0284867E0,1.733606E0,-1.7501676E-2,2.048573E0,3.2490566E0,-5.9701264E-2,-1.4468138E0,-7.649113E-1,-1.7679312E0,1.3758653E0,1.1749659E-1,-6.0733503E-1,-1.6000993E0,1.3927238E0,8.548783E-2,-6.1670023E-1,3.1424525E-1,2.5331504E0,1.4365861E0,1.05368644E-1,1.587175E0,-1.9697566E-2,-4.9143024E-2,-2.7932625E-2,4.1959733E-3,-1.5354502E-2,-5.7372507E-2,4.472632E-2,-1.342029E-3,1.34550575E-2,-1.53346E-2,2.2653728E-3,-2.2297043E-2,-5.009737E-2,-4.4399775E-3,4.6670683E-2,1.5762083E-2,3.2880572E-3,-2.1501929E-2,2.2461038E-2,-5.089067E-3,2.3183389E-2,7.9051875E-2,2.6686838E-2,6.117924E-2,1.9859064E-2,6.214498E-2],"categories":[],"categories_nodes":[],"categories_segments":[],"categories_sizes":[],"default_left":[0,0,0,0,0,0,0,0,0,0,0,0,0,0,0,0,0,0,0,0,0,0,0,0,0,0,0,0,0,0,0,0,0,0,0,0,0,0,0,0,0,0,0,0,0,0,0,0,0,0,0,0,0,0,0,0,0],"id":32,"left_children":[1,3,5,7,9,11,13,15,17,19,21,23,25,27,29,-1,31,33,35,37,39,41,43,45,-1,47,49,51,53,-1,55,-1,-1,-1,-1,-1,-1,-1,-1,-1,-1,-1,-1,-1,-1,-1,-1,-1,-1,-1,-1,-1,-1,-1,-1,-1,-1],"loss_changes":[3.4984663E3,2.2341992E2,2.1723486E2,7.409973E1,1.25505875E2,1.1228555E2,8.4805176E1,9.033936E0,8.5384735E1,4.3220367E1,1.5603546E1,2.6948242E1,1.2299566E1,3.310858E1,4.2120483E1,0E0,2.8482178E1,5.748436E1,1.6521881E1,7.1956787E0,1.9041704E1,5.5701523E0,2.1096573E0,1.0612915E1,0E0,1.9911308E0,9.044029E0,5.9646606E0,1.9943512E1,0E0,7.0347595E0,0E0,0E0,0E0,0E0,0E0,0E0,0E0,0E0,0E0,0E0,0E0,0E0,0E0,0E0,0E0,0E0,0E0,0E0,0E0,0E0,0E0,0E0,0E0,0E0,0E0,0E0],"parents":[2147483647,0,0,1,1,2,2,3,3,4,4,5,5,6,6,7,7,8,8,9,9,10,10,11,11,12,12,13,13,14,14,16,16,17,17,18,18,19,19,20,20,21,21,22,22,23,23,25,25,26,26,27,27,28,28,30,30],"right_children":[2,4,6,8,10,12,14,16,18,20,22,24,26,28,30,-1,32,34,36,38,40,42,44,46,-1,48,50,52,54,-1,56,-1,-1,-1,-1,-1,-1,-1,-1,-1,-1,-1,-1,-1,-1,-1,-1,-1,-1,-1,-1,-1,-1,-1,-1,-1,-1],"split_conditions":[7.0146346E0,5.300603E0,8.570427E0,2.316959E0,1.2E1,8.333333E0,4.633715E0,1.3020235E0,5E0,2E0,6.0004067E0,5.933626E0,7.890193E0,1.1E1,1.5E1,-5.9701264E-2,5E-1,3.918369E0,3.3309417E0,1.3E1,3.4350226E0,2E0,2.0138888E0,1E1,8.548783E-2,3.0550504E0,8.248514E0,2.072003E0,1.0563873E1,1.05368644E-1,1.0628074E1,-1.9697566E-2,-4.9143024E-2,-2.7932625E-2,4.1959733E-3,-1.5354502E-2,-5.7372507E-2,4.472632E-2,-1.342029E-3,1.34550575E-2,-1.53346E-2,2.2653728E-3,-2.2297043E-2,-5.009737E-2,-4.4399775E-3,4.6670683E-2,1.5762083E-2,3.2880572E-3,-2.1501929E-2,2.2461038E-2,-5.089067E-3,2.3183389E-2,7.9051875E-2,2.6686838E-2,6.117924E-2,1.9859064E-2,6.214498E-2],"split_indices":[25,25,25,25,10,7,30,25,0,9,26,26,25,0,0,0,0,25,26,3,26,9,9,0,0,8,29,26,25,0,25,0,0,0,0,0,